digraph Tree {
node [shape=box] ;
0 [label="alcohol <= 10.625\ngini = 0.6764\nsamples = 2742\nvalue = [13, 99, 815, 1234, 475, 102, 4]"] ;
1 [label="volatile acidity <= 0.2475\ngini = 0.6218\nsamples = 1604\nvalue = [6, 71, 681, 698, 129, 18, 1]"] ;
0 -> 1 [labeldistance=2.5, labelangle=45, headlabel="True"] ;
2 [label="alcohol <= 8.75\ngini = 0.6006\nsamples = 665\nvalue = [1, 13, 164, 374, 97, 16, 0]"] ;
1 -> 2 ;
3 [label="fixed acidity <= 7.25\ngini = 0.6154\nsamples = 26\nvalue = [1, 0, 9, 3, 13, 0, 0]"] ;
2 -> 3 ;
4 [label="chlorides <= 0.0505\ngini = 0.5562\nsamples = 13\nvalue = [1, 0, 8, 3, 1, 0, 0]"] ;
3 -> 4 ;
5 [label="fixed acidity <= 4.35\ngini = 0.2188\nsamples = 8\nvalue = [1, 0, 7, 0, 0, 0, 0]"] ;
4 -> 5 ;
6 [label="gini = 0.0\nsamples = 1\nvalue = [1, 0, 0, 0, 0, 0, 0]"] ;
5 -> 6 ;
7 [label="gini = 0.0\nsamples = 7\nvalue = [0, 0, 7, 0, 0, 0, 0]"] ;
5 -> 7 ;
8 [label="free sulfur dioxide <= 30.5\ngini = 0.56\nsamples = 5\nvalue = [0, 0, 1, 3, 1, 0, 0]"] ;
4 -> 8 ;
9 [label="gini = 0.0\nsamples = 1\nvalue = [0, 0, 0, 0, 1, 0, 0]"] ;
8 -> 9 ;
10 [label="total sulfur dioxide <= 215.0\ngini = 0.375\nsamples = 4\nvalue = [0, 0, 1, 3, 0, 0, 0]"] ;
8 -> 10 ;
11 [label="gini = 0.0\nsamples = 3\nvalue = [0, 0, 0, 3, 0, 0, 0]"] ;
10 -> 11 ;
12 [label="gini = 0.0\nsamples = 1\nvalue = [0, 0, 1, 0, 0, 0, 0]"] ;
10 -> 12 ;
13 [label="citric acid <= 0.55\ngini = 0.142\nsamples = 13\nvalue = [0, 0, 1, 0, 12, 0, 0]"] ;
3 -> 13 ;
14 [label="gini = 0.0\nsamples = 12\nvalue = [0, 0, 0, 0, 12, 0, 0]"] ;
13 -> 14 ;
15 [label="gini = 0.0\nsamples = 1\nvalue = [0, 0, 1, 0, 0, 0, 0]"] ;
13 -> 15 ;
16 [label="free sulfur dioxide <= 23.5\ngini = 0.5857\nsamples = 639\nvalue = [0, 13, 155, 371, 84, 16, 0]"] ;
2 -> 16 ;
17 [label="residual sugar <= 5.25\ngini = 0.6305\nsamples = 135\nvalue = [0, 9, 48, 65, 11, 2, 0]"] ;
16 -> 17 ;
18 [label="citric acid <= 0.235\ngini = 0.6408\nsamples = 96\nvalue = [0, 7, 42, 38, 7, 2, 0]"] ;
17 -> 18 ;
19 [label="total sulfur dioxide <= 83.5\ngini = 0.1975\nsamples = 9\nvalue = [0, 0, 8, 1, 0, 0, 0]"] ;
18 -> 19 ;
20 [label="gini = 0.0\nsamples = 1\nvalue = [0, 0, 0, 1, 0, 0, 0]"] ;
19 -> 20 ;
21 [label="gini = 0.0\nsamples = 8\nvalue = [0, 0, 8, 0, 0, 0, 0]"] ;
19 -> 21 ;
22 [label="density <= 0.9948\ngini = 0.6529\nsamples = 87\nvalue = [0, 7, 34, 37, 7, 2, 0]"] ;
18 -> 22 ;
23 [label="free sulfur dioxide <= 13.0\ngini = 0.6348\nsamples = 79\nvalue = [0, 4, 29, 37, 7, 2, 0]"] ;
22 -> 23 ;
24 [label="residual sugar <= 2.2\ngini = 0.5494\nsamples = 18\nvalue = [0, 3, 11, 4, 0, 0, 0]"] ;
23 -> 24 ;
25 [label="free sulfur dioxide <= 5.5\ngini = 0.3571\nsamples = 14\nvalue = [0, 1, 11, 2, 0, 0, 0]"] ;
24 -> 25 ;
26 [label="gini = 0.0\nsamples = 1\nvalue = [0, 1, 0, 0, 0, 0, 0]"] ;
25 -> 26 ;
27 [label="chlorides <= 0.151\ngini = 0.2604\nsamples = 13\nvalue = [0, 0, 11, 2, 0, 0, 0]"] ;
25 -> 27 ;
28 [label="pH <= 3.465\ngini = 0.1528\nsamples = 12\nvalue = [0, 0, 11, 1, 0, 0, 0]"] ;
27 -> 28 ;
29 [label="gini = 0.0\nsamples = 11\nvalue = [0, 0, 11, 0, 0, 0, 0]"] ;
28 -> 29 ;
30 [label="gini = 0.0\nsamples = 1\nvalue = [0, 0, 0, 1, 0, 0, 0]"] ;
28 -> 30 ;
31 [label="gini = 0.0\nsamples = 1\nvalue = [0, 0, 0, 1, 0, 0, 0]"] ;
27 -> 31 ;
32 [label="alcohol <= 10.05\ngini = 0.5\nsamples = 4\nvalue = [0, 2, 0, 2, 0, 0, 0]"] ;
24 -> 32 ;
33 [label="gini = 0.0\nsamples = 2\nvalue = [0, 0, 0, 2, 0, 0, 0]"] ;
32 -> 33 ;
34 [label="gini = 0.0\nsamples = 2\nvalue = [0, 2, 0, 0, 0, 0, 0]"] ;
32 -> 34 ;
35 [label="density <= 0.9941\ngini = 0.6058\nsamples = 61\nvalue = [0, 1, 18, 33, 7, 2, 0]"] ;
23 -> 35 ;
36 [label="chlorides <= 0.0435\ngini = 0.6647\nsamples = 45\nvalue = [0, 1, 15, 20, 7, 2, 0]"] ;
35 -> 36 ;
37 [label="sulphates <= 0.395\ngini = 0.5802\nsamples = 18\nvalue = [0, 1, 2, 11, 3, 1, 0]"] ;
36 -> 37 ;
38 [label="chlorides <= 0.0255\ngini = 0.4444\nsamples = 3\nvalue = [0, 0, 1, 0, 2, 0, 0]"] ;
37 -> 38 ;
39 [label="gini = 0.0\nsamples = 1\nvalue = [0, 0, 1, 0, 0, 0, 0]"] ;
38 -> 39 ;
40 [label="gini = 0.0\nsamples = 2\nvalue = [0, 0, 0, 0, 2, 0, 0]"] ;
38 -> 40 ;
41 [label="volatile acidity <= 0.13\ngini = 0.4444\nsamples = 15\nvalue = [0, 1, 1, 11, 1, 1, 0]"] ;
37 -> 41 ;
42 [label="fixed acidity <= 5.75\ngini = 0.5\nsamples = 2\nvalue = [0, 0, 1, 0, 1, 0, 0]"] ;
41 -> 42 ;
43 [label="gini = 0.0\nsamples = 1\nvalue = [0, 0, 1, 0, 0, 0, 0]"] ;
42 -> 43 ;
44 [label="gini = 0.0\nsamples = 1\nvalue = [0, 0, 0, 0, 1, 0, 0]"] ;
42 -> 44 ;
45 [label="residual sugar <= 2.1\ngini = 0.2722\nsamples = 13\nvalue = [0, 1, 0, 11, 0, 1, 0]"] ;
41 -> 45 ;
46 [label="gini = 0.0\nsamples = 11\nvalue = [0, 0, 0, 11, 0, 0, 0]"] ;
45 -> 46 ;
47 [label="total sulfur dioxide <= 109.0\ngini = 0.5\nsamples = 2\nvalue = [0, 1, 0, 0, 0, 1, 0]"] ;
45 -> 47 ;
48 [label="gini = 0.0\nsamples = 1\nvalue = [0, 0, 0, 0, 0, 1, 0]"] ;
47 -> 48 ;
49 [label="gini = 0.0\nsamples = 1\nvalue = [0, 1, 0, 0, 0, 0, 0]"] ;
47 -> 49 ;
50 [label="density <= 0.9923\ngini = 0.6337\nsamples = 27\nvalue = [0, 0, 13, 9, 4, 1, 0]"] ;
36 -> 50 ;
51 [label="gini = 0.0\nsamples = 4\nvalue = [0, 0, 4, 0, 0, 0, 0]"] ;
50 -> 51 ;
52 [label="density <= 0.9939\ngini = 0.6616\nsamples = 23\nvalue = [0, 0, 9, 9, 4, 1, 0]"] ;
50 -> 52 ;
53 [label="citric acid <= 0.465\ngini = 0.665\nsamples = 20\nvalue = [0, 0, 6, 9, 4, 1, 0]"] ;
52 -> 53 ;
54 [label="citric acid <= 0.345\ngini = 0.6429\nsamples = 14\nvalue = [0, 0, 2, 7, 4, 1, 0]"] ;
53 -> 54 ;
55 [label="density <= 0.9924\ngini = 0.58\nsamples = 10\nvalue = [0, 0, 2, 6, 1, 1, 0]"] ;
54 -> 55 ;
56 [label="citric acid <= 0.28\ngini = 0.5\nsamples = 2\nvalue = [0, 0, 0, 0, 1, 1, 0]"] ;
55 -> 56 ;
57 [label="gini = 0.0\nsamples = 1\nvalue = [0, 0, 0, 0, 1, 0, 0]"] ;
56 -> 57 ;
58 [label="gini = 0.0\nsamples = 1\nvalue = [0, 0, 0, 0, 0, 1, 0]"] ;
56 -> 58 ;
59 [label="volatile acidity <= 0.225\ngini = 0.375\nsamples = 8\nvalue = [0, 0, 2, 6, 0, 0, 0]"] ;
55 -> 59 ;
60 [label="gini = 0.0\nsamples = 5\nvalue = [0, 0, 0, 5, 0, 0, 0]"] ;
59 -> 60 ;
61 [label="chlorides <= 0.0455\ngini = 0.4444\nsamples = 3\nvalue = [0, 0, 2, 1, 0, 0, 0]"] ;
59 -> 61 ;
62 [label="gini = 0.0\nsamples = 1\nvalue = [0, 0, 0, 1, 0, 0, 0]"] ;
61 -> 62 ;
63 [label="gini = 0.0\nsamples = 2\nvalue = [0, 0, 2, 0, 0, 0, 0]"] ;
61 -> 63 ;
64 [label="density <= 0.9924\ngini = 0.375\nsamples = 4\nvalue = [0, 0, 0, 1, 3, 0, 0]"] ;
54 -> 64 ;
65 [label="gini = 0.0\nsamples = 1\nvalue = [0, 0, 0, 1, 0, 0, 0]"] ;
64 -> 65 ;
66 [label="gini = 0.0\nsamples = 3\nvalue = [0, 0, 0, 0, 3, 0, 0]"] ;
64 -> 66 ;
67 [label="chlorides <= 0.055\ngini = 0.4444\nsamples = 6\nvalue = [0, 0, 4, 2, 0, 0, 0]"] ;
53 -> 67 ;
68 [label="gini = 0.0\nsamples = 4\nvalue = [0, 0, 4, 0, 0, 0, 0]"] ;
67 -> 68 ;
69 [label="gini = 0.0\nsamples = 2\nvalue = [0, 0, 0, 2, 0, 0, 0]"] ;
67 -> 69 ;
70 [label="gini = 0.0\nsamples = 3\nvalue = [0, 0, 3, 0, 0, 0, 0]"] ;
52 -> 70 ;
71 [label="citric acid <= 0.37\ngini = 0.3047\nsamples = 16\nvalue = [0, 0, 3, 13, 0, 0, 0]"] ;
35 -> 71 ;
72 [label="gini = 0.0\nsamples = 9\nvalue = [0, 0, 0, 9, 0, 0, 0]"] ;
71 -> 72 ;
73 [label="alcohol <= 10.1\ngini = 0.4898\nsamples = 7\nvalue = [0, 0, 3, 4, 0, 0, 0]"] ;
71 -> 73 ;
74 [label="gini = 0.0\nsamples = 3\nvalue = [0, 0, 3, 0, 0, 0, 0]"] ;
73 -> 74 ;
75 [label="gini = 0.0\nsamples = 4\nvalue = [0, 0, 0, 4, 0, 0, 0]"] ;
73 -> 75 ;
76 [label="free sulfur dioxide <= 19.5\ngini = 0.4688\nsamples = 8\nvalue = [0, 3, 5, 0, 0, 0, 0]"] ;
22 -> 76 ;
77 [label="fixed acidity <= 8.4\ngini = 0.375\nsamples = 4\nvalue = [0, 3, 1, 0, 0, 0, 0]"] ;
76 -> 77 ;
78 [label="gini = 0.0\nsamples = 1\nvalue = [0, 0, 1, 0, 0, 0, 0]"] ;
77 -> 78 ;
79 [label="gini = 0.0\nsamples = 3\nvalue = [0, 3, 0, 0, 0, 0, 0]"] ;
77 -> 79 ;
80 [label="gini = 0.0\nsamples = 4\nvalue = [0, 0, 4, 0, 0, 0, 0]"] ;
76 -> 80 ;
81 [label="total sulfur dioxide <= 157.5\ngini = 0.4839\nsamples = 39\nvalue = [0, 2, 6, 27, 4, 0, 0]"] ;
17 -> 81 ;
82 [label="sulphates <= 0.355\ngini = 0.3739\nsamples = 35\nvalue = [0, 1, 6, 27, 1, 0, 0]"] ;
81 -> 82 ;
83 [label="volatile acidity <= 0.19\ngini = 0.5714\nsamples = 7\nvalue = [0, 1, 4, 2, 0, 0, 0]"] ;
82 -> 83 ;
84 [label="sulphates <= 0.325\ngini = 0.4444\nsamples = 3\nvalue = [0, 1, 0, 2, 0, 0, 0]"] ;
83 -> 84 ;
85 [label="gini = 0.0\nsamples = 2\nvalue = [0, 0, 0, 2, 0, 0, 0]"] ;
84 -> 85 ;
86 [label="gini = 0.0\nsamples = 1\nvalue = [0, 1, 0, 0, 0, 0, 0]"] ;
84 -> 86 ;
87 [label="gini = 0.0\nsamples = 4\nvalue = [0, 0, 4, 0, 0, 0, 0]"] ;
83 -> 87 ;
88 [label="sulphates <= 0.58\ngini = 0.1964\nsamples = 28\nvalue = [0, 0, 2, 25, 1, 0, 0]"] ;
82 -> 88 ;
89 [label="alcohol <= 10.45\ngini = 0.0868\nsamples = 22\nvalue = [0, 0, 0, 21, 1, 0, 0]"] ;
88 -> 89 ;
90 [label="gini = 0.0\nsamples = 19\nvalue = [0, 0, 0, 19, 0, 0, 0]"] ;
89 -> 90 ;
91 [label="citric acid <= 0.29\ngini = 0.4444\nsamples = 3\nvalue = [0, 0, 0, 2, 1, 0, 0]"] ;
89 -> 91 ;
92 [label="gini = 0.0\nsamples = 1\nvalue = [0, 0, 0, 0, 1, 0, 0]"] ;
91 -> 92 ;
93 [label="gini = 0.0\nsamples = 2\nvalue = [0, 0, 0, 2, 0, 0, 0]"] ;
91 -> 93 ;
94 [label="alcohol <= 10.1\ngini = 0.4444\nsamples = 6\nvalue = [0, 0, 2, 4, 0, 0, 0]"] ;
88 -> 94 ;
95 [label="density <= 0.9964\ngini = 0.4444\nsamples = 3\nvalue = [0, 0, 2, 1, 0, 0, 0]"] ;
94 -> 95 ;
96 [label="gini = 0.0\nsamples = 2\nvalue = [0, 0, 2, 0, 0, 0, 0]"] ;
95 -> 96 ;
97 [label="gini = 0.0\nsamples = 1\nvalue = [0, 0, 0, 1, 0, 0, 0]"] ;
95 -> 97 ;
98 [label="gini = 0.0\nsamples = 3\nvalue = [0, 0, 0, 3, 0, 0, 0]"] ;
94 -> 98 ;
99 [label="total sulfur dioxide <= 165.0\ngini = 0.375\nsamples = 4\nvalue = [0, 1, 0, 0, 3, 0, 0]"] ;
81 -> 99 ;
100 [label="gini = 0.0\nsamples = 1\nvalue = [0, 1, 0, 0, 0, 0, 0]"] ;
99 -> 100 ;
101 [label="gini = 0.0\nsamples = 3\nvalue = [0, 0, 0, 0, 3, 0, 0]"] ;
99 -> 101 ;
102 [label="sulphates <= 0.475\ngini = 0.5645\nsamples = 504\nvalue = [0, 4, 107, 306, 73, 14, 0]"] ;
16 -> 102 ;
103 [label="total sulfur dioxide <= 212.25\ngini = 0.6148\nsamples = 255\nvalue = [0, 3, 70, 138, 30, 14, 0]"] ;
102 -> 103 ;
104 [label="density <= 0.9995\ngini = 0.6018\nsamples = 246\nvalue = [0, 3, 70, 135, 30, 8, 0]"] ;
103 -> 104 ;
105 [label="residual sugar <= 16.35\ngini = 0.5806\nsamples = 229\nvalue = [0, 3, 63, 132, 23, 8, 0]"] ;
104 -> 105 ;
106 [label="alcohol <= 8.85\ngini = 0.5999\nsamples = 215\nvalue = [0, 3, 63, 118, 23, 8, 0]"] ;
105 -> 106 ;
107 [label="volatile acidity <= 0.22\ngini = 0.6281\nsamples = 11\nvalue = [0, 0, 5, 2, 0, 4, 0]"] ;
106 -> 107 ;
108 [label="pH <= 3.11\ngini = 0.4444\nsamples = 6\nvalue = [0, 0, 0, 2, 0, 4, 0]"] ;
107 -> 108 ;
109 [label="gini = 0.0\nsamples = 4\nvalue = [0, 0, 0, 0, 0, 4, 0]"] ;
108 -> 109 ;
110 [label="gini = 0.0\nsamples = 2\nvalue = [0, 0, 0, 2, 0, 0, 0]"] ;
108 -> 110 ;
111 [label="gini = 0.0\nsamples = 5\nvalue = [0, 0, 5, 0, 0, 0, 0]"] ;
107 -> 111 ;
112 [label="residual sugar <= 14.65\ngini = 0.5825\nsamples = 204\nvalue = [0, 3, 58, 116, 23, 4, 0]"] ;
106 -> 112 ;
113 [label="density <= 0.9984\ngini = 0.5617\nsamples = 191\nvalue = [0, 2, 56, 112, 17, 4, 0]"] ;
112 -> 113 ;
114 [label="density <= 0.9963\ngini = 0.5551\nsamples = 187\nvalue = [0, 2, 52, 112, 17, 4, 0]"] ;
113 -> 114 ;
115 [label="density <= 0.9935\ngini = 0.5964\nsamples = 142\nvalue = [0, 1, 44, 77, 16, 4, 0]"] ;
114 -> 115 ;
116 [label="citric acid <= 0.215\ngini = 0.4414\nsamples = 53\nvalue = [0, 0, 14, 37, 2, 0, 0]"] ;
115 -> 116 ;
117 [label="residual sugar <= 3.5\ngini = 0.375\nsamples = 4\nvalue = [0, 0, 3, 1, 0, 0, 0]"] ;
116 -> 117 ;
118 [label="gini = 0.0\nsamples = 3\nvalue = [0, 0, 3, 0, 0, 0, 0]"] ;
117 -> 118 ;
119 [label="gini = 0.0\nsamples = 1\nvalue = [0, 0, 0, 1, 0, 0, 0]"] ;
117 -> 119 ;
120 [label="pH <= 3.265\ngini = 0.4082\nsamples = 49\nvalue = [0, 0, 11, 36, 2, 0, 0]"] ;
116 -> 120 ;
121 [label="residual sugar <= 1.25\ngini = 0.4178\nsamples = 37\nvalue = [0, 0, 11, 26, 0, 0, 0]"] ;
120 -> 121 ;
122 [label="residual sugar <= 1.15\ngini = 0.4978\nsamples = 15\nvalue = [0, 0, 7, 8, 0, 0, 0]"] ;
121 -> 122 ;
123 [label="chlorides <= 0.0425\ngini = 0.4444\nsamples = 12\nvalue = [0, 0, 4, 8, 0, 0, 0]"] ;
122 -> 123 ;
124 [label="gini = 0.0\nsamples = 4\nvalue = [0, 0, 0, 4, 0, 0, 0]"] ;
123 -> 124 ;
125 [label="fixed acidity <= 6.95\ngini = 0.5\nsamples = 8\nvalue = [0, 0, 4, 4, 0, 0, 0]"] ;
123 -> 125 ;
126 [label="free sulfur dioxide <= 34.5\ngini = 0.4444\nsamples = 6\nvalue = [0, 0, 4, 2, 0, 0, 0]"] ;
125 -> 126 ;
127 [label="pH <= 3.125\ngini = 0.4444\nsamples = 3\nvalue = [0, 0, 1, 2, 0, 0, 0]"] ;
126 -> 127 ;
128 [label="gini = 0.0\nsamples = 2\nvalue = [0, 0, 0, 2, 0, 0, 0]"] ;
127 -> 128 ;
129 [label="gini = 0.0\nsamples = 1\nvalue = [0, 0, 1, 0, 0, 0, 0]"] ;
127 -> 129 ;
130 [label="gini = 0.0\nsamples = 3\nvalue = [0, 0, 3, 0, 0, 0, 0]"] ;
126 -> 130 ;
131 [label="gini = 0.0\nsamples = 2\nvalue = [0, 0, 0, 2, 0, 0, 0]"] ;
125 -> 131 ;
132 [label="gini = 0.0\nsamples = 3\nvalue = [0, 0, 3, 0, 0, 0, 0]"] ;
122 -> 132 ;
133 [label="total sulfur dioxide <= 169.5\ngini = 0.2975\nsamples = 22\nvalue = [0, 0, 4, 18, 0, 0, 0]"] ;
121 -> 133 ;
134 [label="citric acid <= 0.325\ngini = 0.2449\nsamples = 21\nvalue = [0, 0, 3, 18, 0, 0, 0]"] ;
133 -> 134 ;
135 [label="gini = 0.0\nsamples = 11\nvalue = [0, 0, 0, 11, 0, 0, 0]"] ;
134 -> 135 ;
136 [label="citric acid <= 0.375\ngini = 0.42\nsamples = 10\nvalue = [0, 0, 3, 7, 0, 0, 0]"] ;
134 -> 136 ;
137 [label="gini = 0.0\nsamples = 2\nvalue = [0, 0, 2, 0, 0, 0, 0]"] ;
136 -> 137 ;
138 [label="chlorides <= 0.0435\ngini = 0.2188\nsamples = 8\nvalue = [0, 0, 1, 7, 0, 0, 0]"] ;
136 -> 138 ;
139 [label="sulphates <= 0.385\ngini = 0.5\nsamples = 2\nvalue = [0, 0, 1, 1, 0, 0, 0]"] ;
138 -> 139 ;
140 [label="gini = 0.0\nsamples = 1\nvalue = [0, 0, 0, 1, 0, 0, 0]"] ;
139 -> 140 ;
141 [label="gini = 0.0\nsamples = 1\nvalue = [0, 0, 1, 0, 0, 0, 0]"] ;
139 -> 141 ;
142 [label="gini = 0.0\nsamples = 6\nvalue = [0, 0, 0, 6, 0, 0, 0]"] ;
138 -> 142 ;
143 [label="gini = 0.0\nsamples = 1\nvalue = [0, 0, 1, 0, 0, 0, 0]"] ;
133 -> 143 ;
144 [label="volatile acidity <= 0.135\ngini = 0.2778\nsamples = 12\nvalue = [0, 0, 0, 10, 2, 0, 0]"] ;
120 -> 144 ;
145 [label="gini = 0.0\nsamples = 1\nvalue = [0, 0, 0, 0, 1, 0, 0]"] ;
144 -> 145 ;
146 [label="fixed acidity <= 7.3\ngini = 0.1653\nsamples = 11\nvalue = [0, 0, 0, 10, 1, 0, 0]"] ;
144 -> 146 ;
147 [label="gini = 0.0\nsamples = 9\nvalue = [0, 0, 0, 9, 0, 0, 0]"] ;
146 -> 147 ;
148 [label="volatile acidity <= 0.21\ngini = 0.5\nsamples = 2\nvalue = [0, 0, 0, 1, 1, 0, 0]"] ;
146 -> 148 ;
149 [label="gini = 0.0\nsamples = 1\nvalue = [0, 0, 0, 1, 0, 0, 0]"] ;
148 -> 149 ;
150 [label="gini = 0.0\nsamples = 1\nvalue = [0, 0, 0, 0, 1, 0, 0]"] ;
148 -> 150 ;
151 [label="chlorides <= 0.0385\ngini = 0.6575\nsamples = 89\nvalue = [0, 1, 30, 40, 14, 4, 0]"] ;
115 -> 151 ;
152 [label="free sulfur dioxide <= 29.5\ngini = 0.4861\nsamples = 12\nvalue = [0, 0, 0, 5, 7, 0, 0]"] ;
151 -> 152 ;
153 [label="gini = 0.0\nsamples = 5\nvalue = [0, 0, 0, 0, 5, 0, 0]"] ;
152 -> 153 ;
154 [label="volatile acidity <= 0.185\ngini = 0.4082\nsamples = 7\nvalue = [0, 0, 0, 5, 2, 0, 0]"] ;
152 -> 154 ;
155 [label="citric acid <= 0.25\ngini = 0.4444\nsamples = 3\nvalue = [0, 0, 0, 1, 2, 0, 0]"] ;
154 -> 155 ;
156 [label="gini = 0.0\nsamples = 1\nvalue = [0, 0, 0, 1, 0, 0, 0]"] ;
155 -> 156 ;
157 [label="gini = 0.0\nsamples = 2\nvalue = [0, 0, 0, 0, 2, 0, 0]"] ;
155 -> 157 ;
158 [label="gini = 0.0\nsamples = 4\nvalue = [0, 0, 0, 4, 0, 0, 0]"] ;
154 -> 158 ;
159 [label="citric acid <= 0.295\ngini = 0.6305\nsamples = 77\nvalue = [0, 1, 30, 35, 7, 4, 0]"] ;
151 -> 159 ;
160 [label="gini = 0.5612\nsamples = 29\nvalue = [0, 0, 5, 18, 2, 4, 0]"] ;
159 -> 160 ;
181 [label="sulphates <= 0.445\ngini = 0.592\nsamples = 48\nvalue = [0, 1, 25, 17, 5, 0, 0]"] ;
159 -> 181 ;
182 [label="volatile acidity <= 0.115\ngini = 0.6226\nsamples = 33\nvalue = [0, 1, 13, 15, 4, 0, 0]"] ;
181 -> 182 ;
183 [label="free sulfur dioxide <= 64.0\ngini = 0.4444\nsamples = 3\nvalue = [0, 1, 0, 0, 2, 0, 0]"] ;
182 -> 183 ;
184 [label="gini = 0.0\nsamples = 2\nvalue = [0, 0, 0, 0, 2, 0, 0]"] ;
183 -> 184 ;
185 [label="gini = 0.0\nsamples = 1\nvalue = [0, 1, 0, 0, 0, 0, 0]"] ;
183 -> 185 ;
186 [label="fixed acidity <= 6.1\ngini = 0.5578\nsamples = 30\nvalue = [0, 0, 13, 15, 2, 0, 0]"] ;
182 -> 186 ;
187 [label="chlorides <= 0.0545\ngini = 0.4444\nsamples = 3\nvalue = [0, 0, 1, 0, 2, 0, 0]"] ;
186 -> 187 ;
188 [label="gini = 0.0\nsamples = 2\nvalue = [0, 0, 0, 0, 2, 0, 0]"] ;
187 -> 188 ;
189 [label="gini = 0.0\nsamples = 1\nvalue = [0, 0, 1, 0, 0, 0, 0]"] ;
187 -> 189 ;
190 [label="residual sugar <= 5.5\ngini = 0.4938\nsamples = 27\nvalue = [0, 0, 12, 15, 0, 0, 0]"] ;
186 -> 190 ;
191 [label="pH <= 3.09\ngini = 0.4444\nsamples = 12\nvalue = [0, 0, 8, 4, 0, 0, 0]"] ;
190 -> 191 ;
192 [label="gini = 0.0\nsamples = 6\nvalue = [0, 0, 6, 0, 0, 0, 0]"] ;
191 -> 192 ;
193 [label="density <= 0.9952\ngini = 0.4444\nsamples = 6\nvalue = [0, 0, 2, 4, 0, 0, 0]"] ;
191 -> 193 ;
194 [label="gini = 0.0\nsamples = 4\nvalue = [0, 0, 0, 4, 0, 0, 0]"] ;
193 -> 194 ;
195 [label="gini = 0.0\nsamples = 2\nvalue = [0, 0, 2, 0, 0, 0, 0]"] ;
193 -> 195 ;
196 [label="total sulfur dioxide <= 135.5\ngini = 0.3911\nsamples = 15\nvalue = [0, 0, 4, 11, 0, 0, 0]"] ;
190 -> 196 ;
197 [label="gini = 0.0\nsamples = 3\nvalue = [0, 0, 3, 0, 0, 0, 0]"] ;
196 -> 197 ;
198 [label="free sulfur dioxide <= 62.0\ngini = 0.1528\nsamples = 12\nvalue = [0, 0, 1, 11, 0, 0, 0]"] ;
196 -> 198 ;
199 [label="gini = 0.0\nsamples = 11\nvalue = [0, 0, 0, 11, 0, 0, 0]"] ;
198 -> 199 ;
200 [label="gini = 0.0\nsamples = 1\nvalue = [0, 0, 1, 0, 0, 0, 0]"] ;
198 -> 200 ;
201 [label="volatile acidity <= 0.13\ngini = 0.3378\nsamples = 15\nvalue = [0, 0, 12, 2, 1, 0, 0]"] ;
181 -> 201 ;
202 [label="gini = 0.0\nsamples = 1\nvalue = [0, 0, 0, 0, 1, 0, 0]"] ;
201 -> 202 ;
203 [label="chlorides <= 0.0415\ngini = 0.2449\nsamples = 14\nvalue = [0, 0, 12, 2, 0, 0, 0]"] ;
201 -> 203 ;
204 [label="gini = 0.0\nsamples = 1\nvalue = [0, 0, 0, 1, 0, 0, 0]"] ;
203 -> 204 ;
205 [label="pH <= 3.37\ngini = 0.142\nsamples = 13\nvalue = [0, 0, 12, 1, 0, 0, 0]"] ;
203 -> 205 ;
206 [label="gini = 0.0\nsamples = 9\nvalue = [0, 0, 9, 0, 0, 0, 0]"] ;
205 -> 206 ;
207 [label="alcohol <= 10.0\ngini = 0.375\nsamples = 4\nvalue = [0, 0, 3, 1, 0, 0, 0]"] ;
205 -> 207 ;
208 [label="gini = 0.0\nsamples = 1\nvalue = [0, 0, 0, 1, 0, 0, 0]"] ;
207 -> 208 ;
209 [label="gini = 0.0\nsamples = 3\nvalue = [0, 0, 3, 0, 0, 0, 0]"] ;
207 -> 209 ;
210 [label="citric acid <= 0.475\ngini = 0.3625\nsamples = 45\nvalue = [0, 1, 8, 35, 1, 0, 0]"] ;
114 -> 210 ;
211 [label="chlorides <= 0.039\ngini = 0.2846\nsamples = 42\nvalue = [0, 1, 6, 35, 0, 0, 0]"] ;
210 -> 211 ;
212 [label="total sulfur dioxide <= 158.0\ngini = 0.5\nsamples = 2\nvalue = [0, 1, 1, 0, 0, 0, 0]"] ;
211 -> 212 ;
213 [label="gini = 0.0\nsamples = 1\nvalue = [0, 0, 1, 0, 0, 0, 0]"] ;
212 -> 213 ;
214 [label="gini = 0.0\nsamples = 1\nvalue = [0, 1, 0, 0, 0, 0, 0]"] ;
212 -> 214 ;
215 [label="fixed acidity <= 6.75\ngini = 0.2188\nsamples = 40\nvalue = [0, 0, 5, 35, 0, 0, 0]"] ;
211 -> 215 ;
216 [label="density <= 0.9974\ngini = 0.4592\nsamples = 14\nvalue = [0, 0, 5, 9, 0, 0, 0]"] ;
215 -> 216 ;
217 [label="total sulfur dioxide <= 158.5\ngini = 0.2188\nsamples = 8\nvalue = [0, 0, 1, 7, 0, 0, 0]"] ;
216 -> 217 ;
218 [label="gini = 0.0\nsamples = 7\nvalue = [0, 0, 0, 7, 0, 0, 0]"] ;
217 -> 218 ;
219 [label="gini = 0.0\nsamples = 1\nvalue = [0, 0, 1, 0, 0, 0, 0]"] ;
217 -> 219 ;
220 [label="pH <= 3.47\ngini = 0.4444\nsamples = 6\nvalue = [0, 0, 4, 2, 0, 0, 0]"] ;
216 -> 220 ;
221 [label="gini = 0.0\nsamples = 4\nvalue = [0, 0, 4, 0, 0, 0, 0]"] ;
220 -> 221 ;
222 [label="gini = 0.0\nsamples = 2\nvalue = [0, 0, 0, 2, 0, 0, 0]"] ;
220 -> 222 ;
223 [label="gini = 0.0\nsamples = 26\nvalue = [0, 0, 0, 26, 0, 0, 0]"] ;
215 -> 223 ;
224 [label="pH <= 3.06\ngini = 0.4444\nsamples = 3\nvalue = [0, 0, 2, 0, 1, 0, 0]"] ;
210 -> 224 ;
225 [label="gini = 0.0\nsamples = 2\nvalue = [0, 0, 2, 0, 0, 0, 0]"] ;
224 -> 225 ;
226 [label="gini = 0.0\nsamples = 1\nvalue = [0, 0, 0, 0, 1, 0, 0]"] ;
224 -> 226 ;
227 [label="gini = 0.0\nsamples = 4\nvalue = [0, 0, 4, 0, 0, 0, 0]"] ;
113 -> 227 ;
228 [label="residual sugar <= 14.9\ngini = 0.6627\nsamples = 13\nvalue = [0, 1, 2, 4, 6, 0, 0]"] ;
112 -> 228 ;
229 [label="gini = 0.0\nsamples = 5\nvalue = [0, 0, 0, 0, 5, 0, 0]"] ;
228 -> 229 ;
230 [label="density <= 0.9972\ngini = 0.6562\nsamples = 8\nvalue = [0, 1, 2, 4, 1, 0, 0]"] ;
228 -> 230 ;
231 [label="gini = 0.0\nsamples = 2\nvalue = [0, 0, 2, 0, 0, 0, 0]"] ;
230 -> 231 ;
232 [label="fixed acidity <= 7.45\ngini = 0.5\nsamples = 6\nvalue = [0, 1, 0, 4, 1, 0, 0]"] ;
230 -> 232 ;
233 [label="gini = 0.0\nsamples = 4\nvalue = [0, 0, 0, 4, 0, 0, 0]"] ;
232 -> 233 ;
234 [label="free sulfur dioxide <= 35.5\ngini = 0.5\nsamples = 2\nvalue = [0, 1, 0, 0, 1, 0, 0]"] ;
232 -> 234 ;
235 [label="gini = 0.0\nsamples = 1\nvalue = [0, 1, 0, 0, 0, 0, 0]"] ;
234 -> 235 ;
236 [label="gini = 0.0\nsamples = 1\nvalue = [0, 0, 0, 0, 1, 0, 0]"] ;
234 -> 236 ;
237 [label="gini = 0.0\nsamples = 14\nvalue = [0, 0, 0, 14, 0, 0, 0]"] ;
105 -> 237 ;
238 [label="sulphates <= 0.425\ngini = 0.6298\nsamples = 17\nvalue = [0, 0, 7, 3, 7, 0, 0]"] ;
104 -> 238 ;
239 [label="residual sugar <= 17.0\ngini = 0.5694\nsamples = 12\nvalue = [0, 0, 7, 3, 2, 0, 0]"] ;
238 -> 239 ;
240 [label="citric acid <= 0.38\ngini = 0.48\nsamples = 5\nvalue = [0, 0, 0, 3, 2, 0, 0]"] ;
239 -> 240 ;
241 [label="gini = 0.0\nsamples = 3\nvalue = [0, 0, 0, 3, 0, 0, 0]"] ;
240 -> 241 ;
242 [label="gini = 0.0\nsamples = 2\nvalue = [0, 0, 0, 0, 2, 0, 0]"] ;
240 -> 242 ;
243 [label="gini = 0.0\nsamples = 7\nvalue = [0, 0, 7, 0, 0, 0, 0]"] ;
239 -> 243 ;
244 [label="gini = 0.0\nsamples = 5\nvalue = [0, 0, 0, 0, 5, 0, 0]"] ;
238 -> 244 ;
245 [label="alcohol <= 9.05\ngini = 0.4444\nsamples = 9\nvalue = [0, 0, 0, 3, 0, 6, 0]"] ;
103 -> 245 ;
246 [label="gini = 0.0\nsamples = 6\nvalue = [0, 0, 0, 0, 0, 6, 0]"] ;
245 -> 246 ;
247 [label="gini = 0.0\nsamples = 3\nvalue = [0, 0, 0, 3, 0, 0, 0]"] ;
245 -> 247 ;
248 [label="free sulfur dioxide <= 39.5\ngini = 0.4929\nsamples = 249\nvalue = [0, 1, 37, 168, 43, 0, 0]"] ;
102 -> 248 ;
249 [label="density <= 0.9997\ngini = 0.3652\nsamples = 119\nvalue = [0, 0, 14, 93, 12, 0, 0]"] ;
248 -> 249 ;
250 [label="total sulfur dioxide <= 87.5\ngini = 0.3375\nsamples = 116\nvalue = [0, 0, 11, 93, 12, 0, 0]"] ;
249 -> 250 ;
251 [label="fixed acidity <= 7.1\ngini = 0.6531\nsamples = 7\nvalue = [0, 0, 3, 2, 2, 0, 0]"] ;
250 -> 251 ;
252 [label="citric acid <= 0.325\ngini = 0.4444\nsamples = 3\nvalue = [0, 0, 0, 2, 1, 0, 0]"] ;
251 -> 252 ;
253 [label="gini = 0.0\nsamples = 1\nvalue = [0, 0, 0, 0, 1, 0, 0]"] ;
252 -> 253 ;
254 [label="gini = 0.0\nsamples = 2\nvalue = [0, 0, 0, 2, 0, 0, 0]"] ;
252 -> 254 ;
255 [label="alcohol <= 10.45\ngini = 0.375\nsamples = 4\nvalue = [0, 0, 3, 0, 1, 0, 0]"] ;
251 -> 255 ;
256 [label="gini = 0.0\nsamples = 1\nvalue = [0, 0, 0, 0, 1, 0, 0]"] ;
255 -> 256 ;
257 [label="gini = 0.0\nsamples = 3\nvalue = [0, 0, 3, 0, 0, 0, 0]"] ;
255 -> 257 ;
258 [label="volatile acidity <= 0.135\ngini = 0.2892\nsamples = 109\nvalue = [0, 0, 8, 91, 10, 0, 0]"] ;
250 -> 258 ;
259 [label="gini = 0.0\nsamples = 2\nvalue = [0, 0, 0, 0, 2, 0, 0]"] ;
258 -> 259 ;
260 [label="density <= 0.9995\ngini = 0.2655\nsamples = 107\nvalue = [0, 0, 8, 91, 8, 0, 0]"] ;
258 -> 260 ;
261 [label="pH <= 3.315\ngini = 0.2529\nsamples = 106\nvalue = [0, 0, 8, 91, 7, 0, 0]"] ;
260 -> 261 ;
262 [label="fixed acidity <= 9.0\ngini = 0.1802\nsamples = 81\nvalue = [0, 0, 7, 73, 1, 0, 0]"] ;
261 -> 262 ;
263 [label="residual sugar <= 1.35\ngini = 0.1597\nsamples = 80\nvalue = [0, 0, 7, 73, 0, 0, 0]"] ;
262 -> 263 ;
264 [label="density <= 0.993\ngini = 0.4444\nsamples = 9\nvalue = [0, 0, 3, 6, 0, 0, 0]"] ;
263 -> 264 ;
265 [label="gini = 0.0\nsamples = 6\nvalue = [0, 0, 0, 6, 0, 0, 0]"] ;
264 -> 265 ;
266 [label="gini = 0.0\nsamples = 3\nvalue = [0, 0, 3, 0, 0, 0, 0]"] ;
264 -> 266 ;
267 [label="chlorides <= 0.0625\ngini = 0.1063\nsamples = 71\nvalue = [0, 0, 4, 67, 0, 0, 0]"] ;
263 -> 267 ;
268 [label="sulphates <= 0.645\ngini = 0.0579\nsamples = 67\nvalue = [0, 0, 2, 65, 0, 0, 0]"] ;
267 -> 268 ;
269 [label="gini = 0.0\nsamples = 58\nvalue = [0, 0, 0, 58, 0, 0, 0]"] ;
268 -> 269 ;
270 [label="free sulfur dioxide <= 24.5\ngini = 0.3457\nsamples = 9\nvalue = [0, 0, 2, 7, 0, 0, 0]"] ;
268 -> 270 ;
271 [label="gini = 0.0\nsamples = 1\nvalue = [0, 0, 1, 0, 0, 0, 0]"] ;
270 -> 271 ;
272 [label="citric acid <= 0.24\ngini = 0.2188\nsamples = 8\nvalue = [0, 0, 1, 7, 0, 0, 0]"] ;
270 -> 272 ;
273 [label="gini = 0.0\nsamples = 1\nvalue = [0, 0, 1, 0, 0, 0, 0]"] ;
272 -> 273 ;
274 [label="gini = 0.0\nsamples = 7\nvalue = [0, 0, 0, 7, 0, 0, 0]"] ;
272 -> 274 ;
275 [label="residual sugar <= 6.5\ngini = 0.5\nsamples = 4\nvalue = [0, 0, 2, 2, 0, 0, 0]"] ;
267 -> 275 ;
276 [label="gini = 0.0\nsamples = 2\nvalue = [0, 0, 0, 2, 0, 0, 0]"] ;
275 -> 276 ;
277 [label="gini = 0.0\nsamples = 2\nvalue = [0, 0, 2, 0, 0, 0, 0]"] ;
275 -> 277 ;
278 [label="gini = 0.0\nsamples = 1\nvalue = [0, 0, 0, 0, 1, 0, 0]"] ;
262 -> 278 ;
279 [label="fixed acidity <= 7.35\ngini = 0.4224\nsamples = 25\nvalue = [0, 0, 1, 18, 6, 0, 0]"] ;
261 -> 279 ;
280 [label="pH <= 3.325\ngini = 0.3099\nsamples = 22\nvalue = [0, 0, 1, 18, 3, 0, 0]"] ;
279 -> 280 ;
281 [label="chlorides <= 0.043\ngini = 0.4444\nsamples = 3\nvalue = [0, 0, 0, 1, 2, 0, 0]"] ;
280 -> 281 ;
282 [label="gini = 0.0\nsamples = 2\nvalue = [0, 0, 0, 0, 2, 0, 0]"] ;
281 -> 282 ;
283 [label="gini = 0.0\nsamples = 1\nvalue = [0, 0, 0, 1, 0, 0, 0]"] ;
281 -> 283 ;
284 [label="chlorides <= 0.0635\ngini = 0.1939\nsamples = 19\nvalue = [0, 0, 1, 17, 1, 0, 0]"] ;
280 -> 284 ;
285 [label="fixed acidity <= 7.1\ngini = 0.1049\nsamples = 18\nvalue = [0, 0, 0, 17, 1, 0, 0]"] ;
284 -> 285 ;
286 [label="gini = 0.0\nsamples = 16\nvalue = [0, 0, 0, 16, 0, 0, 0]"] ;
285 -> 286 ;
287 [label="alcohol <= 10.35\ngini = 0.5\nsamples = 2\nvalue = [0, 0, 0, 1, 1, 0, 0]"] ;
285 -> 287 ;
288 [label="gini = 0.0\nsamples = 1\nvalue = [0, 0, 0, 0, 1, 0, 0]"] ;
287 -> 288 ;
289 [label="gini = 0.0\nsamples = 1\nvalue = [0, 0, 0, 1, 0, 0, 0]"] ;
287 -> 289 ;
290 [label="gini = 0.0\nsamples = 1\nvalue = [0, 0, 1, 0, 0, 0, 0]"] ;
284 -> 290 ;
291 [label="gini = 0.0\nsamples = 3\nvalue = [0, 0, 0, 0, 3, 0, 0]"] ;
279 -> 291 ;
292 [label="gini = 0.0\nsamples = 1\nvalue = [0, 0, 0, 0, 1, 0, 0]"] ;
260 -> 292 ;
293 [label="gini = 0.0\nsamples = 3\nvalue = [0, 0, 3, 0, 0, 0, 0]"] ;
249 -> 293 ;
294 [label="free sulfur dioxide <= 55.5\ngini = 0.5789\nsamples = 130\nvalue = [0, 1, 23, 75, 31, 0, 0]"] ;
248 -> 294 ;
295 [label="citric acid <= 0.305\ngini = 0.6226\nsamples = 89\nvalue = [0, 0, 18, 44, 27, 0, 0]"] ;
294 -> 295 ;
296 [label="fixed acidity <= 7.3\ngini = 0.6564\nsamples = 29\nvalue = [0, 0, 12, 8, 9, 0, 0]"] ;
295 -> 296 ;
297 [label="sulphates <= 0.545\ngini = 0.5714\nsamples = 21\nvalue = [0, 0, 12, 6, 3, 0, 0]"] ;
296 -> 297 ;
298 [label="fixed acidity <= 6.1\ngini = 0.3571\nsamples = 14\nvalue = [0, 0, 11, 1, 2, 0, 0]"] ;
297 -> 298 ;
299 [label="gini = 0.0\nsamples = 2\nvalue = [0, 0, 0, 0, 2, 0, 0]"] ;
298 -> 299 ;
300 [label="total sulfur dioxide <= 133.5\ngini = 0.1528\nsamples = 12\nvalue = [0, 0, 11, 1, 0, 0, 0]"] ;
298 -> 300 ;
301 [label="gini = 0.0\nsamples = 1\nvalue = [0, 0, 0, 1, 0, 0, 0]"] ;
300 -> 301 ;
302 [label="gini = 0.0\nsamples = 11\nvalue = [0, 0, 11, 0, 0, 0, 0]"] ;
300 -> 302 ;
303 [label="sulphates <= 0.655\ngini = 0.449\nsamples = 7\nvalue = [0, 0, 1, 5, 1, 0, 0]"] ;
297 -> 303 ;
304 [label="gini = 0.0\nsamples = 5\nvalue = [0, 0, 0, 5, 0, 0, 0]"] ;
303 -> 304 ;
305 [label="volatile acidity <= 0.22\ngini = 0.5\nsamples = 2\nvalue = [0, 0, 1, 0, 1, 0, 0]"] ;
303 -> 305 ;
306 [label="gini = 0.0\nsamples = 1\nvalue = [0, 0, 0, 0, 1, 0, 0]"] ;
305 -> 306 ;
307 [label="gini = 0.0\nsamples = 1\nvalue = [0, 0, 1, 0, 0, 0, 0]"] ;
305 -> 307 ;
308 [label="fixed acidity <= 7.8\ngini = 0.375\nsamples = 8\nvalue = [0, 0, 0, 2, 6, 0, 0]"] ;
296 -> 308 ;
309 [label="gini = 0.0\nsamples = 6\nvalue = [0, 0, 0, 0, 6, 0, 0]"] ;
308 -> 309 ;
310 [label="gini = 0.0\nsamples = 2\nvalue = [0, 0, 0, 2, 0, 0, 0]"] ;
308 -> 310 ;
311 [label="density <= 0.998\ngini = 0.54\nsamples = 60\nvalue = [0, 0, 6, 36, 18, 0, 0]"] ;
295 -> 311 ;
312 [label="residual sugar <= 10.95\ngini = 0.5397\nsamples = 42\nvalue = [0, 0, 2, 22, 18, 0, 0]"] ;
311 -> 312 ;
313 [label="sulphates <= 0.81\ngini = 0.4567\nsamples = 34\nvalue = [0, 0, 0, 22, 12, 0, 0]"] ;
312 -> 313 ;
314 [label="total sulfur dioxide <= 201.5\ngini = 0.4121\nsamples = 31\nvalue = [0, 0, 0, 22, 9, 0, 0]"] ;
313 -> 314 ;
315 [label="citric acid <= 0.545\ngini = 0.3662\nsamples = 29\nvalue = [0, 0, 0, 22, 7, 0, 0]"] ;
314 -> 315 ;
316 [label="alcohol <= 10.45\ngini = 0.3367\nsamples = 28\nvalue = [0, 0, 0, 22, 6, 0, 0]"] ;
315 -> 316 ;
317 [label="total sulfur dioxide <= 135.5\ngini = 0.2355\nsamples = 22\nvalue = [0, 0, 0, 19, 3, 0, 0]"] ;
316 -> 317 ;
318 [label="total sulfur dioxide <= 120.5\ngini = 0.5\nsamples = 4\nvalue = [0, 0, 0, 2, 2, 0, 0]"] ;
317 -> 318 ;
319 [label="gini = 0.0\nsamples = 2\nvalue = [0, 0, 0, 2, 0, 0, 0]"] ;
318 -> 319 ;
320 [label="gini = 0.0\nsamples = 2\nvalue = [0, 0, 0, 0, 2, 0, 0]"] ;
318 -> 320 ;
321 [label="pH <= 3.1\ngini = 0.1049\nsamples = 18\nvalue = [0, 0, 0, 17, 1, 0, 0]"] ;
317 -> 321 ;
322 [label="alcohol <= 9.55\ngini = 0.4444\nsamples = 3\nvalue = [0, 0, 0, 2, 1, 0, 0]"] ;
321 -> 322 ;
323 [label="gini = 0.0\nsamples = 1\nvalue = [0, 0, 0, 0, 1, 0, 0]"] ;
322 -> 323 ;
324 [label="gini = 0.0\nsamples = 2\nvalue = [0, 0, 0, 2, 0, 0, 0]"] ;
322 -> 324 ;
325 [label="gini = 0.0\nsamples = 15\nvalue = [0, 0, 0, 15, 0, 0, 0]"] ;
321 -> 325 ;
326 [label="fixed acidity <= 6.85\ngini = 0.5\nsamples = 6\nvalue = [0, 0, 0, 3, 3, 0, 0]"] ;
316 -> 326 ;
327 [label="gini = 0.0\nsamples = 3\nvalue = [0, 0, 0, 3, 0, 0, 0]"] ;
326 -> 327 ;
328 [label="gini = 0.0\nsamples = 3\nvalue = [0, 0, 0, 0, 3, 0, 0]"] ;
326 -> 328 ;
329 [label="gini = 0.0\nsamples = 1\nvalue = [0, 0, 0, 0, 1, 0, 0]"] ;
315 -> 329 ;
330 [label="gini = 0.0\nsamples = 2\nvalue = [0, 0, 0, 0, 2, 0, 0]"] ;
314 -> 330 ;
331 [label="gini = 0.0\nsamples = 3\nvalue = [0, 0, 0, 0, 3, 0, 0]"] ;
313 -> 331 ;
332 [label="free sulfur dioxide <= 51.5\ngini = 0.375\nsamples = 8\nvalue = [0, 0, 2, 0, 6, 0, 0]"] ;
312 -> 332 ;
333 [label="gini = 0.0\nsamples = 6\nvalue = [0, 0, 0, 0, 6, 0, 0]"] ;
332 -> 333 ;
334 [label="gini = 0.0\nsamples = 2\nvalue = [0, 0, 2, 0, 0, 0, 0]"] ;
332 -> 334 ;
335 [label="pH <= 3.035\ngini = 0.3457\nsamples = 18\nvalue = [0, 0, 4, 14, 0, 0, 0]"] ;
311 -> 335 ;
336 [label="volatile acidity <= 0.205\ngini = 0.375\nsamples = 4\nvalue = [0, 0, 3, 1, 0, 0, 0]"] ;
335 -> 336 ;
337 [label="gini = 0.0\nsamples = 1\nvalue = [0, 0, 0, 1, 0, 0, 0]"] ;
336 -> 337 ;
338 [label="gini = 0.0\nsamples = 3\nvalue = [0, 0, 3, 0, 0, 0, 0]"] ;
336 -> 338 ;
339 [label="residual sugar <= 16.775\ngini = 0.1327\nsamples = 14\nvalue = [0, 0, 1, 13, 0, 0, 0]"] ;
335 -> 339 ;
340 [label="gini = 0.0\nsamples = 12\nvalue = [0, 0, 0, 12, 0, 0, 0]"] ;
339 -> 340 ;
341 [label="fixed acidity <= 8.0\ngini = 0.5\nsamples = 2\nvalue = [0, 0, 1, 1, 0, 0, 0]"] ;
339 -> 341 ;
342 [label="gini = 0.0\nsamples = 1\nvalue = [0, 0, 1, 0, 0, 0, 0]"] ;
341 -> 342 ;
343 [label="gini = 0.0\nsamples = 1\nvalue = [0, 0, 0, 1, 0, 0, 0]"] ;
341 -> 343 ;
344 [label="sulphates <= 0.815\ngini = 0.4033\nsamples = 41\nvalue = [0, 1, 5, 31, 4, 0, 0]"] ;
294 -> 344 ;
345 [label="total sulfur dioxide <= 160.0\ngini = 0.3485\nsamples = 39\nvalue = [0, 1, 5, 31, 2, 0, 0]"] ;
344 -> 345 ;
346 [label="residual sugar <= 11.65\ngini = 0.6531\nsamples = 7\nvalue = [0, 0, 2, 3, 2, 0, 0]"] ;
345 -> 346 ;
347 [label="chlorides <= 0.0445\ngini = 0.48\nsamples = 5\nvalue = [0, 0, 2, 3, 0, 0, 0]"] ;
346 -> 347 ;
348 [label="gini = 0.0\nsamples = 3\nvalue = [0, 0, 0, 3, 0, 0, 0]"] ;
347 -> 348 ;
349 [label="gini = 0.0\nsamples = 2\nvalue = [0, 0, 2, 0, 0, 0, 0]"] ;
347 -> 349 ;
350 [label="gini = 0.0\nsamples = 2\nvalue = [0, 0, 0, 0, 2, 0, 0]"] ;
346 -> 350 ;
351 [label="residual sugar <= 15.2\ngini = 0.2246\nsamples = 32\nvalue = [0, 1, 3, 28, 0, 0, 0]"] ;
345 -> 351 ;
352 [label="total sulfur dioxide <= 192.5\ngini = 0.074\nsamples = 26\nvalue = [0, 1, 0, 25, 0, 0, 0]"] ;
351 -> 352 ;
353 [label="gini = 0.0\nsamples = 23\nvalue = [0, 0, 0, 23, 0, 0, 0]"] ;
352 -> 353 ;
354 [label="free sulfur dioxide <= 66.5\ngini = 0.4444\nsamples = 3\nvalue = [0, 1, 0, 2, 0, 0, 0]"] ;
352 -> 354 ;
355 [label="gini = 0.0\nsamples = 1\nvalue = [0, 1, 0, 0, 0, 0, 0]"] ;
354 -> 355 ;
356 [label="gini = 0.0\nsamples = 2\nvalue = [0, 0, 0, 2, 0, 0, 0]"] ;
354 -> 356 ;
357 [label="residual sugar <= 15.9\ngini = 0.5\nsamples = 6\nvalue = [0, 0, 3, 3, 0, 0, 0]"] ;
351 -> 357 ;
358 [label="gini = 0.0\nsamples = 3\nvalue = [0, 0, 3, 0, 0, 0, 0]"] ;
357 -> 358 ;
359 [label="gini = 0.0\nsamples = 3\nvalue = [0, 0, 0, 3, 0, 0, 0]"] ;
357 -> 359 ;
360 [label="gini = 0.0\nsamples = 2\nvalue = [0, 0, 0, 0, 2, 0, 0]"] ;
344 -> 360 ;
361 [label="alcohol <= 9.75\ngini = 0.5728\nsamples = 939\nvalue = [5, 58, 517, 324, 32, 2, 1]"] ;
1 -> 361 ;
362 [label="volatile acidity <= 0.3025\ngini = 0.5254\nsamples = 608\nvalue = [2, 32, 376, 181, 17, 0, 0]"] ;
361 -> 362 ;
363 [label="free sulfur dioxide <= 67.5\ngini = 0.5613\nsamples = 275\nvalue = [0, 10, 148, 105, 12, 0, 0]"] ;
362 -> 363 ;
364 [label="residual sugar <= 9.35\ngini = 0.5523\nsamples = 263\nvalue = [0, 9, 148, 94, 12, 0, 0]"] ;
363 -> 364 ;
365 [label="citric acid <= 0.265\ngini = 0.4646\nsamples = 138\nvalue = [0, 5, 93, 39, 1, 0, 0]"] ;
364 -> 365 ;
366 [label="pH <= 3.365\ngini = 0.2574\nsamples = 42\nvalue = [0, 2, 36, 3, 1, 0, 0]"] ;
365 -> 366 ;
367 [label="free sulfur dioxide <= 63.0\ngini = 0.1446\nsamples = 39\nvalue = [0, 2, 36, 1, 0, 0, 0]"] ;
366 -> 367 ;
368 [label="free sulfur dioxide <= 7.5\ngini = 0.0997\nsamples = 38\nvalue = [0, 2, 36, 0, 0, 0, 0]"] ;
367 -> 368 ;
369 [label="gini = 0.0\nsamples = 1\nvalue = [0, 1, 0, 0, 0, 0, 0]"] ;
368 -> 369 ;
370 [label="pH <= 3.0\ngini = 0.0526\nsamples = 37\nvalue = [0, 1, 36, 0, 0, 0, 0]"] ;
368 -> 370 ;
371 [label="gini = 0.0\nsamples = 1\nvalue = [0, 1, 0, 0, 0, 0, 0]"] ;
370 -> 371 ;
372 [label="gini = 0.0\nsamples = 36\nvalue = [0, 0, 36, 0, 0, 0, 0]"] ;
370 -> 372 ;
373 [label="gini = 0.0\nsamples = 1\nvalue = [0, 0, 0, 1, 0, 0, 0]"] ;
367 -> 373 ;
374 [label="residual sugar <= 7.825\ngini = 0.4444\nsamples = 3\nvalue = [0, 0, 0, 2, 1, 0, 0]"] ;
366 -> 374 ;
375 [label="gini = 0.0\nsamples = 2\nvalue = [0, 0, 0, 2, 0, 0, 0]"] ;
374 -> 375 ;
376 [label="gini = 0.0\nsamples = 1\nvalue = [0, 0, 0, 0, 1, 0, 0]"] ;
374 -> 376 ;
377 [label="density <= 0.9954\ngini = 0.5059\nsamples = 96\nvalue = [0, 3, 57, 36, 0, 0, 0]"] ;
365 -> 377 ;
378 [label="citric acid <= 0.435\ngini = 0.4991\nsamples = 46\nvalue = [0, 0, 22, 24, 0, 0, 0]"] ;
377 -> 378 ;
379 [label="citric acid <= 0.295\ngini = 0.426\nsamples = 26\nvalue = [0, 0, 8, 18, 0, 0, 0]"] ;
378 -> 379 ;
380 [label="gini = 0.0\nsamples = 5\nvalue = [0, 0, 0, 5, 0, 0, 0]"] ;
379 -> 380 ;
381 [label="fixed acidity <= 6.35\ngini = 0.4717\nsamples = 21\nvalue = [0, 0, 8, 13, 0, 0, 0]"] ;
379 -> 381 ;
382 [label="citric acid <= 0.335\ngini = 0.2975\nsamples = 11\nvalue = [0, 0, 2, 9, 0, 0, 0]"] ;
381 -> 382 ;
383 [label="chlorides <= 0.1225\ngini = 0.4444\nsamples = 3\nvalue = [0, 0, 2, 1, 0, 0, 0]"] ;
382 -> 383 ;
384 [label="gini = 0.0\nsamples = 2\nvalue = [0, 0, 2, 0, 0, 0, 0]"] ;
383 -> 384 ;
385 [label="gini = 0.0\nsamples = 1\nvalue = [0, 0, 0, 1, 0, 0, 0]"] ;
383 -> 385 ;
386 [label="gini = 0.0\nsamples = 8\nvalue = [0, 0, 0, 8, 0, 0, 0]"] ;
382 -> 386 ;
387 [label="sulphates <= 0.455\ngini = 0.48\nsamples = 10\nvalue = [0, 0, 6, 4, 0, 0, 0]"] ;
381 -> 387 ;
388 [label="gini = 0.0\nsamples = 2\nvalue = [0, 0, 0, 2, 0, 0, 0]"] ;
387 -> 388 ;
389 [label="volatile acidity <= 0.255\ngini = 0.375\nsamples = 8\nvalue = [0, 0, 6, 2, 0, 0, 0]"] ;
387 -> 389 ;
390 [label="pH <= 3.015\ngini = 0.4444\nsamples = 3\nvalue = [0, 0, 1, 2, 0, 0, 0]"] ;
389 -> 390 ;
391 [label="gini = 0.0\nsamples = 1\nvalue = [0, 0, 1, 0, 0, 0, 0]"] ;
390 -> 391 ;
392 [label="gini = 0.0\nsamples = 2\nvalue = [0, 0, 0, 2, 0, 0, 0]"] ;
390 -> 392 ;
393 [label="gini = 0.0\nsamples = 5\nvalue = [0, 0, 5, 0, 0, 0, 0]"] ;
389 -> 393 ;
394 [label="alcohol <= 9.25\ngini = 0.42\nsamples = 20\nvalue = [0, 0, 14, 6, 0, 0, 0]"] ;
378 -> 394 ;
395 [label="total sulfur dioxide <= 175.5\ngini = 0.4082\nsamples = 7\nvalue = [0, 0, 2, 5, 0, 0, 0]"] ;
394 -> 395 ;
396 [label="gini = 0.0\nsamples = 5\nvalue = [0, 0, 0, 5, 0, 0, 0]"] ;
395 -> 396 ;
397 [label="gini = 0.0\nsamples = 2\nvalue = [0, 0, 2, 0, 0, 0, 0]"] ;
395 -> 397 ;
398 [label="pH <= 2.975\ngini = 0.142\nsamples = 13\nvalue = [0, 0, 12, 1, 0, 0, 0]"] ;
394 -> 398 ;
399 [label="gini = 0.0\nsamples = 1\nvalue = [0, 0, 0, 1, 0, 0, 0]"] ;
398 -> 399 ;
400 [label="gini = 0.0\nsamples = 12\nvalue = [0, 0, 12, 0, 0, 0, 0]"] ;
398 -> 400 ;
401 [label="volatile acidity <= 0.255\ngini = 0.4488\nsamples = 50\nvalue = [0, 3, 35, 12, 0, 0, 0]"] ;
377 -> 401 ;
402 [label="gini = 0.0\nsamples = 10\nvalue = [0, 0, 10, 0, 0, 0, 0]"] ;
401 -> 402 ;
403 [label="citric acid <= 0.47\ngini = 0.5137\nsamples = 40\nvalue = [0, 3, 25, 12, 0, 0, 0]"] ;
401 -> 403 ;
404 [label="fixed acidity <= 6.65\ngini = 0.3995\nsamples = 29\nvalue = [0, 0, 21, 8, 0, 0, 0]"] ;
403 -> 404 ;
405 [label="pH <= 3.25\ngini = 0.1327\nsamples = 14\nvalue = [0, 0, 13, 1, 0, 0, 0]"] ;
404 -> 405 ;
406 [label="gini = 0.0\nsamples = 13\nvalue = [0, 0, 13, 0, 0, 0, 0]"] ;
405 -> 406 ;
407 [label="gini = 0.0\nsamples = 1\nvalue = [0, 0, 0, 1, 0, 0, 0]"] ;
405 -> 407 ;
408 [label="total sulfur dioxide <= 185.5\ngini = 0.4978\nsamples = 15\nvalue = [0, 0, 8, 7, 0, 0, 0]"] ;
404 -> 408 ;
409 [label="alcohol <= 9.0\ngini = 0.2188\nsamples = 8\nvalue = [0, 0, 7, 1, 0, 0, 0]"] ;
408 -> 409 ;
410 [label="gini = 0.0\nsamples = 1\nvalue = [0, 0, 0, 1, 0, 0, 0]"] ;
409 -> 410 ;
411 [label="gini = 0.0\nsamples = 7\nvalue = [0, 0, 7, 0, 0, 0, 0]"] ;
409 -> 411 ;
412 [label="alcohol <= 9.05\ngini = 0.2449\nsamples = 7\nvalue = [0, 0, 1, 6, 0, 0, 0]"] ;
408 -> 412 ;
413 [label="gini = 0.0\nsamples = 1\nvalue = [0, 0, 1, 0, 0, 0, 0]"] ;
412 -> 413 ;
414 [label="gini = 0.0\nsamples = 6\nvalue = [0, 0, 0, 6, 0, 0, 0]"] ;
412 -> 414 ;
415 [label="sulphates <= 0.515\ngini = 0.6612\nsamples = 11\nvalue = [0, 3, 4, 4, 0, 0, 0]"] ;
403 -> 415 ;
416 [label="volatile acidity <= 0.265\ngini = 0.5\nsamples = 8\nvalue = [0, 0, 4, 4, 0, 0, 0]"] ;
415 -> 416 ;
417 [label="gini = 0.0\nsamples = 3\nvalue = [0, 0, 3, 0, 0, 0, 0]"] ;
416 -> 417 ;
418 [label="density <= 0.9955\ngini = 0.32\nsamples = 5\nvalue = [0, 0, 1, 4, 0, 0, 0]"] ;
416 -> 418 ;
419 [label="gini = 0.0\nsamples = 1\nvalue = [0, 0, 1, 0, 0, 0, 0]"] ;
418 -> 419 ;
420 [label="gini = 0.0\nsamples = 4\nvalue = [0, 0, 0, 4, 0, 0, 0]"] ;
418 -> 420 ;
421 [label="gini = 0.0\nsamples = 3\nvalue = [0, 3, 0, 0, 0, 0, 0]"] ;
415 -> 421 ;
422 [label="residual sugar <= 11.45\ngini = 0.604\nsamples = 125\nvalue = [0, 4, 55, 55, 11, 0, 0]"] ;
364 -> 422 ;
423 [label="chlorides <= 0.0515\ngini = 0.3678\nsamples = 22\nvalue = [0, 1, 4, 17, 0, 0, 0]"] ;
422 -> 423 ;
424 [label="total sulfur dioxide <= 228.0\ngini = 0.1172\nsamples = 16\nvalue = [0, 0, 1, 15, 0, 0, 0]"] ;
423 -> 424 ;
425 [label="gini = 0.0\nsamples = 15\nvalue = [0, 0, 0, 15, 0, 0, 0]"] ;
424 -> 425 ;
426 [label="gini = 0.0\nsamples = 1\nvalue = [0, 0, 1, 0, 0, 0, 0]"] ;
424 -> 426 ;
427 [label="chlorides <= 0.065\ngini = 0.6111\nsamples = 6\nvalue = [0, 1, 3, 2, 0, 0, 0]"] ;
423 -> 427 ;
428 [label="alcohol <= 9.15\ngini = 0.48\nsamples = 5\nvalue = [0, 0, 3, 2, 0, 0, 0]"] ;
427 -> 428 ;
429 [label="gini = 0.0\nsamples = 2\nvalue = [0, 0, 2, 0, 0, 0, 0]"] ;
428 -> 429 ;
430 [label="alcohol <= 9.55\ngini = 0.4444\nsamples = 3\nvalue = [0, 0, 1, 2, 0, 0, 0]"] ;
428 -> 430 ;
431 [label="gini = 0.0\nsamples = 2\nvalue = [0, 0, 0, 2, 0, 0, 0]"] ;
430 -> 431 ;
432 [label="gini = 0.0\nsamples = 1\nvalue = [0, 0, 1, 0, 0, 0, 0]"] ;
430 -> 432 ;
433 [label="gini = 0.0\nsamples = 1\nvalue = [0, 1, 0, 0, 0, 0, 0]"] ;
427 -> 433 ;
434 [label="volatile acidity <= 0.2825\ngini = 0.6065\nsamples = 103\nvalue = [0, 3, 51, 38, 11, 0, 0]"] ;
422 -> 434 ;
435 [label="citric acid <= 0.55\ngini = 0.6261\nsamples = 77\nvalue = [0, 2, 32, 33, 10, 0, 0]"] ;
434 -> 435 ;
436 [label="fixed acidity <= 7.35\ngini = 0.6192\nsamples = 70\nvalue = [0, 1, 26, 33, 10, 0, 0]"] ;
435 -> 436 ;
437 [label="fixed acidity <= 7.05\ngini = 0.6193\nsamples = 54\nvalue = [0, 1, 15, 28, 10, 0, 0]"] ;
436 -> 437 ;
438 [label="free sulfur dioxide <= 25.5\ngini = 0.5173\nsamples = 34\nvalue = [0, 1, 14, 19, 0, 0, 0]"] ;
437 -> 438 ;
439 [label="gini = 0.0\nsamples = 3\nvalue = [0, 0, 3, 0, 0, 0, 0]"] ;
438 -> 439 ;
440 [label="free sulfur dioxide <= 33.0\ngini = 0.4974\nsamples = 31\nvalue = [0, 1, 11, 19, 0, 0, 0]"] ;
438 -> 440 ;
441 [label="gini = 0.0\nsamples = 5\nvalue = [0, 0, 0, 5, 0, 0, 0]"] ;
440 -> 441 ;
442 [label="fixed acidity <= 6.85\ngini = 0.5296\nsamples = 26\nvalue = [0, 1, 11, 14, 0, 0, 0]"] ;
440 -> 442 ;
443 [label="pH <= 3.285\ngini = 0.5429\nsamples = 19\nvalue = [0, 1, 10, 8, 0, 0, 0]"] ;
442 -> 443 ;
444 [label="fixed acidity <= 6.65\ngini = 0.5511\nsamples = 15\nvalue = [0, 1, 6, 8, 0, 0, 0]"] ;
443 -> 444 ;
445 [label="chlorides <= 0.053\ngini = 0.4861\nsamples = 12\nvalue = [0, 1, 3, 8, 0, 0, 0]"] ;
444 -> 445 ;
446 [label="alcohol <= 9.05\ngini = 0.32\nsamples = 10\nvalue = [0, 0, 2, 8, 0, 0, 0]"] ;
445 -> 446 ;
447 [label="citric acid <= 0.265\ngini = 0.4444\nsamples = 3\nvalue = [0, 0, 2, 1, 0, 0, 0]"] ;
446 -> 447 ;
448 [label="gini = 0.0\nsamples = 1\nvalue = [0, 0, 0, 1, 0, 0, 0]"] ;
447 -> 448 ;
449 [label="gini = 0.0\nsamples = 2\nvalue = [0, 0, 2, 0, 0, 0, 0]"] ;
447 -> 449 ;
450 [label="gini = 0.0\nsamples = 7\nvalue = [0, 0, 0, 7, 0, 0, 0]"] ;
446 -> 450 ;
451 [label="volatile acidity <= 0.265\ngini = 0.5\nsamples = 2\nvalue = [0, 1, 1, 0, 0, 0, 0]"] ;
445 -> 451 ;
452 [label="gini = 0.0\nsamples = 1\nvalue = [0, 0, 1, 0, 0, 0, 0]"] ;
451 -> 452 ;
453 [label="gini = 0.0\nsamples = 1\nvalue = [0, 1, 0, 0, 0, 0, 0]"] ;
451 -> 453 ;
454 [label="gini = 0.0\nsamples = 3\nvalue = [0, 0, 3, 0, 0, 0, 0]"] ;
444 -> 454 ;
455 [label="gini = 0.0\nsamples = 4\nvalue = [0, 0, 4, 0, 0, 0, 0]"] ;
443 -> 455 ;
456 [label="volatile acidity <= 0.26\ngini = 0.2449\nsamples = 7\nvalue = [0, 0, 1, 6, 0, 0, 0]"] ;
442 -> 456 ;
457 [label="gini = 0.0\nsamples = 1\nvalue = [0, 0, 1, 0, 0, 0, 0]"] ;
456 -> 457 ;
458 [label="gini = 0.0\nsamples = 6\nvalue = [0, 0, 0, 6, 0, 0, 0]"] ;
456 -> 458 ;
459 [label="total sulfur dioxide <= 168.75\ngini = 0.545\nsamples = 20\nvalue = [0, 0, 1, 9, 10, 0, 0]"] ;
437 -> 459 ;
460 [label="gini = 0.0\nsamples = 7\nvalue = [0, 0, 0, 7, 0, 0, 0]"] ;
459 -> 460 ;
461 [label="residual sugar <= 12.8\ngini = 0.3787\nsamples = 13\nvalue = [0, 0, 1, 2, 10, 0, 0]"] ;
459 -> 461 ;
462 [label="gini = 0.0\nsamples = 2\nvalue = [0, 0, 0, 2, 0, 0, 0]"] ;
461 -> 462 ;
463 [label="alcohol <= 8.8\ngini = 0.1653\nsamples = 11\nvalue = [0, 0, 1, 0, 10, 0, 0]"] ;
461 -> 463 ;
464 [label="gini = 0.0\nsamples = 1\nvalue = [0, 0, 1, 0, 0, 0, 0]"] ;
463 -> 464 ;
465 [label="gini = 0.0\nsamples = 10\nvalue = [0, 0, 0, 0, 10, 0, 0]"] ;
463 -> 465 ;
466 [label="pH <= 3.075\ngini = 0.4297\nsamples = 16\nvalue = [0, 0, 11, 5, 0, 0, 0]"] ;
436 -> 466 ;
467 [label="sulphates <= 0.47\ngini = 0.4938\nsamples = 9\nvalue = [0, 0, 4, 5, 0, 0, 0]"] ;
466 -> 467 ;
468 [label="gini = 0.0\nsamples = 4\nvalue = [0, 0, 4, 0, 0, 0, 0]"] ;
467 -> 468 ;
469 [label="gini = 0.0\nsamples = 5\nvalue = [0, 0, 0, 5, 0, 0, 0]"] ;
467 -> 469 ;
470 [label="gini = 0.0\nsamples = 7\nvalue = [0, 0, 7, 0, 0, 0, 0]"] ;
466 -> 470 ;
471 [label="residual sugar <= 11.85\ngini = 0.2449\nsamples = 7\nvalue = [0, 1, 6, 0, 0, 0, 0]"] ;
435 -> 471 ;
472 [label="gini = 0.0\nsamples = 1\nvalue = [0, 1, 0, 0, 0, 0, 0]"] ;
471 -> 472 ;
473 [label="gini = 0.0\nsamples = 6\nvalue = [0, 0, 6, 0, 0, 0, 0]"] ;
471 -> 473 ;
474 [label="alcohol <= 9.45\ngini = 0.426\nsamples = 26\nvalue = [0, 1, 19, 5, 1, 0, 0]"] ;
434 -> 474 ;
475 [label="chlorides <= 0.034\ngini = 0.3182\nsamples = 22\nvalue = [0, 1, 18, 2, 1, 0, 0]"] ;
474 -> 475 ;
476 [label="gini = 0.0\nsamples = 1\nvalue = [0, 0, 0, 0, 1, 0, 0]"] ;
475 -> 476 ;
477 [label="chlorides <= 0.065\ngini = 0.254\nsamples = 21\nvalue = [0, 1, 18, 2, 0, 0, 0]"] ;
475 -> 477 ;
478 [label="total sulfur dioxide <= 145.5\ngini = 0.18\nsamples = 20\nvalue = [0, 0, 18, 2, 0, 0, 0]"] ;
477 -> 478 ;
479 [label="fixed acidity <= 6.55\ngini = 0.5\nsamples = 4\nvalue = [0, 0, 2, 2, 0, 0, 0]"] ;
478 -> 479 ;
480 [label="gini = 0.0\nsamples = 2\nvalue = [0, 0, 2, 0, 0, 0, 0]"] ;
479 -> 480 ;
481 [label="gini = 0.0\nsamples = 2\nvalue = [0, 0, 0, 2, 0, 0, 0]"] ;
479 -> 481 ;
482 [label="gini = 0.0\nsamples = 16\nvalue = [0, 0, 16, 0, 0, 0, 0]"] ;
478 -> 482 ;
483 [label="gini = 0.0\nsamples = 1\nvalue = [0, 1, 0, 0, 0, 0, 0]"] ;
477 -> 483 ;
484 [label="residual sugar <= 12.85\ngini = 0.375\nsamples = 4\nvalue = [0, 0, 1, 3, 0, 0, 0]"] ;
474 -> 484 ;
485 [label="gini = 0.0\nsamples = 1\nvalue = [0, 0, 1, 0, 0, 0, 0]"] ;
484 -> 485 ;
486 [label="gini = 0.0\nsamples = 3\nvalue = [0, 0, 0, 3, 0, 0, 0]"] ;
484 -> 486 ;
487 [label="citric acid <= 0.255\ngini = 0.1528\nsamples = 12\nvalue = [0, 1, 0, 11, 0, 0, 0]"] ;
363 -> 487 ;
488 [label="gini = 0.0\nsamples = 1\nvalue = [0, 1, 0, 0, 0, 0, 0]"] ;
487 -> 488 ;
489 [label="gini = 0.0\nsamples = 11\nvalue = [0, 0, 0, 11, 0, 0, 0]"] ;
487 -> 489 ;
490 [label="density <= 1.0014\ngini = 0.4745\nsamples = 333\nvalue = [2, 22, 228, 76, 5, 0, 0]"] ;
362 -> 490 ;
491 [label="citric acid <= 0.435\ngini = 0.469\nsamples = 330\nvalue = [2, 22, 228, 73, 5, 0, 0]"] ;
490 -> 491 ;
492 [label="gini = 0.5144\nsamples = 242\nvalue = [2, 19, 156, 61, 4, 0, 0]"] ;
491 -> 492 ;
609 [label="pH <= 3.25\ngini = 0.3107\nsamples = 88\nvalue = [0, 3, 72, 12, 1, 0, 0]"] ;
491 -> 609 ;
610 [label="alcohol <= 8.55\ngini = 0.2652\nsamples = 85\nvalue = [0, 2, 72, 11, 0, 0, 0]"] ;
609 -> 610 ;
611 [label="gini = 0.0\nsamples = 1\nvalue = [0, 0, 0, 1, 0, 0, 0]"] ;
610 -> 611 ;
612 [label="pH <= 3.065\ngini = 0.2506\nsamples = 84\nvalue = [0, 2, 72, 10, 0, 0, 0]"] ;
610 -> 612 ;
613 [label="total sulfur dioxide <= 149.5\ngini = 0.0605\nsamples = 32\nvalue = [0, 0, 31, 1, 0, 0, 0]"] ;
612 -> 613 ;
614 [label="density <= 0.9983\ngini = 0.2449\nsamples = 7\nvalue = [0, 0, 6, 1, 0, 0, 0]"] ;
613 -> 614 ;
615 [label="gini = 0.0\nsamples = 6\nvalue = [0, 0, 6, 0, 0, 0, 0]"] ;
614 -> 615 ;
616 [label="gini = 0.0\nsamples = 1\nvalue = [0, 0, 0, 1, 0, 0, 0]"] ;
614 -> 616 ;
617 [label="gini = 0.0\nsamples = 25\nvalue = [0, 0, 25, 0, 0, 0, 0]"] ;
613 -> 617 ;
618 [label="total sulfur dioxide <= 241.5\ngini = 0.3469\nsamples = 52\nvalue = [0, 2, 41, 9, 0, 0, 0]"] ;
612 -> 618 ;
619 [label="alcohol <= 8.65\ngini = 0.3222\nsamples = 51\nvalue = [0, 1, 41, 9, 0, 0, 0]"] ;
618 -> 619 ;
620 [label="gini = 0.0\nsamples = 1\nvalue = [0, 1, 0, 0, 0, 0, 0]"] ;
619 -> 620 ;
621 [label="sulphates <= 0.575\ngini = 0.2952\nsamples = 50\nvalue = [0, 0, 41, 9, 0, 0, 0]"] ;
619 -> 621 ;
622 [label="alcohol <= 9.35\ngini = 0.2732\nsamples = 49\nvalue = [0, 0, 41, 8, 0, 0, 0]"] ;
621 -> 622 ;
623 [label="free sulfur dioxide <= 37.0\ngini = 0.3829\nsamples = 31\nvalue = [0, 0, 23, 8, 0, 0, 0]"] ;
622 -> 623 ;
624 [label="density <= 0.9956\ngini = 0.4444\nsamples = 6\nvalue = [0, 0, 2, 4, 0, 0, 0]"] ;
623 -> 624 ;
625 [label="fixed acidity <= 6.9\ngini = 0.4444\nsamples = 3\nvalue = [0, 0, 2, 1, 0, 0, 0]"] ;
624 -> 625 ;
626 [label="gini = 0.0\nsamples = 2\nvalue = [0, 0, 2, 0, 0, 0, 0]"] ;
625 -> 626 ;
627 [label="gini = 0.0\nsamples = 1\nvalue = [0, 0, 0, 1, 0, 0, 0]"] ;
625 -> 627 ;
628 [label="gini = 0.0\nsamples = 3\nvalue = [0, 0, 0, 3, 0, 0, 0]"] ;
624 -> 628 ;
629 [label="chlorides <= 0.0425\ngini = 0.2688\nsamples = 25\nvalue = [0, 0, 21, 4, 0, 0, 0]"] ;
623 -> 629 ;
630 [label="gini = 0.0\nsamples = 2\nvalue = [0, 0, 0, 2, 0, 0, 0]"] ;
629 -> 630 ;
631 [label="density <= 0.9958\ngini = 0.1588\nsamples = 23\nvalue = [0, 0, 21, 2, 0, 0, 0]"] ;
629 -> 631 ;
632 [label="citric acid <= 0.505\ngini = 0.5\nsamples = 2\nvalue = [0, 0, 1, 1, 0, 0, 0]"] ;
631 -> 632 ;
633 [label="gini = 0.0\nsamples = 1\nvalue = [0, 0, 0, 1, 0, 0, 0]"] ;
632 -> 633 ;
634 [label="gini = 0.0\nsamples = 1\nvalue = [0, 0, 1, 0, 0, 0, 0]"] ;
632 -> 634 ;
635 [label="total sulfur dioxide <= 153.5\ngini = 0.0907\nsamples = 21\nvalue = [0, 0, 20, 1, 0, 0, 0]"] ;
631 -> 635 ;
636 [label="pH <= 3.13\ngini = 0.4444\nsamples = 3\nvalue = [0, 0, 2, 1, 0, 0, 0]"] ;
635 -> 636 ;
637 [label="gini = 0.0\nsamples = 1\nvalue = [0, 0, 0, 1, 0, 0, 0]"] ;
636 -> 637 ;
638 [label="gini = 0.0\nsamples = 2\nvalue = [0, 0, 2, 0, 0, 0, 0]"] ;
636 -> 638 ;
639 [label="gini = 0.0\nsamples = 18\nvalue = [0, 0, 18, 0, 0, 0, 0]"] ;
635 -> 639 ;
640 [label="gini = 0.0\nsamples = 18\nvalue = [0, 0, 18, 0, 0, 0, 0]"] ;
622 -> 640 ;
641 [label="gini = 0.0\nsamples = 1\nvalue = [0, 0, 0, 1, 0, 0, 0]"] ;
621 -> 641 ;
642 [label="gini = 0.0\nsamples = 1\nvalue = [0, 1, 0, 0, 0, 0, 0]"] ;
618 -> 642 ;
643 [label="residual sugar <= 10.1\ngini = 0.6667\nsamples = 3\nvalue = [0, 1, 0, 1, 1, 0, 0]"] ;
609 -> 643 ;
644 [label="gini = 0.0\nsamples = 1\nvalue = [0, 1, 0, 0, 0, 0, 0]"] ;
643 -> 644 ;
645 [label="fixed acidity <= 7.55\ngini = 0.5\nsamples = 2\nvalue = [0, 0, 0, 1, 1, 0, 0]"] ;
643 -> 645 ;
646 [label="gini = 0.0\nsamples = 1\nvalue = [0, 0, 0, 0, 1, 0, 0]"] ;
645 -> 646 ;
647 [label="gini = 0.0\nsamples = 1\nvalue = [0, 0, 0, 1, 0, 0, 0]"] ;
645 -> 647 ;
648 [label="gini = 0.0\nsamples = 3\nvalue = [0, 0, 0, 3, 0, 0, 0]"] ;
490 -> 648 ;
649 [label="free sulfur dioxide <= 16.5\ngini = 0.6235\nsamples = 331\nvalue = [3, 26, 141, 143, 15, 2, 1]"] ;
361 -> 649 ;
650 [label="gini = 0.641\nsamples = 45\nvalue = [1, 12, 23, 7, 2, 0, 0]"] ;
649 -> 650 ;
683 [label="volatile acidity <= 0.585\ngini = 0.5991\nsamples = 286\nvalue = [2, 14, 118, 136, 13, 2, 1]"] ;
649 -> 683 ;
684 [label="alcohol <= 10.35\ngini = 0.5871\nsamples = 279\nvalue = [2, 9, 118, 134, 13, 2, 1]"] ;
683 -> 684 ;
685 [label="residual sugar <= 6.35\ngini = 0.5735\nsamples = 196\nvalue = [1, 7, 96, 84, 8, 0, 0]"] ;
684 -> 685 ;
686 [label="total sulfur dioxide <= 130.5\ngini = 0.5439\nsamples = 98\nvalue = [0, 7, 59, 29, 3, 0, 0]"] ;
685 -> 686 ;
687 [label="chlorides <= 0.0445\ngini = 0.6436\nsamples = 34\nvalue = [0, 4, 14, 14, 2, 0, 0]"] ;
686 -> 687 ;
688 [label="citric acid <= 0.265\ngini = 0.568\nsamples = 13\nvalue = [0, 1, 2, 8, 2, 0, 0]"] ;
687 -> 688 ;
689 [label="citric acid <= 0.165\ngini = 0.7347\nsamples = 7\nvalue = [0, 1, 2, 2, 2, 0, 0]"] ;
688 -> 689 ;
690 [label="gini = 0.0\nsamples = 2\nvalue = [0, 0, 0, 2, 0, 0, 0]"] ;
689 -> 690 ;
691 [label="free sulfur dioxide <= 21.5\ngini = 0.64\nsamples = 5\nvalue = [0, 1, 2, 0, 2, 0, 0]"] ;
689 -> 691 ;
692 [label="chlorides <= 0.039\ngini = 0.4444\nsamples = 3\nvalue = [0, 1, 2, 0, 0, 0, 0]"] ;
691 -> 692 ;
693 [label="gini = 0.0\nsamples = 2\nvalue = [0, 0, 2, 0, 0, 0, 0]"] ;
692 -> 693 ;
694 [label="gini = 0.0\nsamples = 1\nvalue = [0, 1, 0, 0, 0, 0, 0]"] ;
692 -> 694 ;
695 [label="gini = 0.0\nsamples = 2\nvalue = [0, 0, 0, 0, 2, 0, 0]"] ;
691 -> 695 ;
696 [label="gini = 0.0\nsamples = 6\nvalue = [0, 0, 0, 6, 0, 0, 0]"] ;
688 -> 696 ;
697 [label="citric acid <= 0.32\ngini = 0.5714\nsamples = 21\nvalue = [0, 3, 12, 6, 0, 0, 0]"] ;
687 -> 697 ;
698 [label="volatile acidity <= 0.26\ngini = 0.18\nsamples = 10\nvalue = [0, 0, 9, 1, 0, 0, 0]"] ;
697 -> 698 ;
699 [label="gini = 0.0\nsamples = 1\nvalue = [0, 0, 0, 1, 0, 0, 0]"] ;
698 -> 699 ;
700 [label="gini = 0.0\nsamples = 9\nvalue = [0, 0, 9, 0, 0, 0, 0]"] ;
698 -> 700 ;
701 [label="citric acid <= 0.52\ngini = 0.6446\nsamples = 11\nvalue = [0, 3, 3, 5, 0, 0, 0]"] ;
697 -> 701 ;
702 [label="chlorides <= 0.0475\ngini = 0.5679\nsamples = 9\nvalue = [0, 1, 3, 5, 0, 0, 0]"] ;
701 -> 702 ;
703 [label="gini = 0.0\nsamples = 2\nvalue = [0, 0, 2, 0, 0, 0, 0]"] ;
702 -> 703 ;
704 [label="chlorides <= 0.1455\ngini = 0.449\nsamples = 7\nvalue = [0, 1, 1, 5, 0, 0, 0]"] ;
702 -> 704 ;
705 [label="citric acid <= 0.375\ngini = 0.2778\nsamples = 6\nvalue = [0, 1, 0, 5, 0, 0, 0]"] ;
704 -> 705 ;
706 [label="density <= 0.9922\ngini = 0.5\nsamples = 2\nvalue = [0, 1, 0, 1, 0, 0, 0]"] ;
705 -> 706 ;
707 [label="gini = 0.0\nsamples = 1\nvalue = [0, 0, 0, 1, 0, 0, 0]"] ;
706 -> 707 ;
708 [label="gini = 0.0\nsamples = 1\nvalue = [0, 1, 0, 0, 0, 0, 0]"] ;
706 -> 708 ;
709 [label="gini = 0.0\nsamples = 4\nvalue = [0, 0, 0, 4, 0, 0, 0]"] ;
705 -> 709 ;
710 [label="gini = 0.0\nsamples = 1\nvalue = [0, 0, 1, 0, 0, 0, 0]"] ;
704 -> 710 ;
711 [label="gini = 0.0\nsamples = 2\nvalue = [0, 2, 0, 0, 0, 0, 0]"] ;
701 -> 711 ;
712 [label="pH <= 3.26\ngini = 0.4482\nsamples = 64\nvalue = [0, 3, 45, 15, 1, 0, 0]"] ;
686 -> 712 ;
713 [label="free sulfur dioxide <= 104.75\ngini = 0.3223\nsamples = 46\nvalue = [0, 1, 37, 8, 0, 0, 0]"] ;
712 -> 713 ;
714 [label="free sulfur dioxide <= 17.5\ngini = 0.2923\nsamples = 45\nvalue = [0, 0, 37, 8, 0, 0, 0]"] ;
713 -> 714 ;
715 [label="gini = 0.0\nsamples = 1\nvalue = [0, 0, 0, 1, 0, 0, 0]"] ;
714 -> 715 ;
716 [label="pH <= 3.035\ngini = 0.2676\nsamples = 44\nvalue = [0, 0, 37, 7, 0, 0, 0]"] ;
714 -> 716 ;
717 [label="gini = 0.0\nsamples = 1\nvalue = [0, 0, 0, 1, 0, 0, 0]"] ;
716 -> 717 ;
718 [label="free sulfur dioxide <= 35.5\ngini = 0.2401\nsamples = 43\nvalue = [0, 0, 37, 6, 0, 0, 0]"] ;
716 -> 718 ;
719 [label="gini = 0.0\nsamples = 19\nvalue = [0, 0, 19, 0, 0, 0, 0]"] ;
718 -> 719 ;
720 [label="free sulfur dioxide <= 39.5\ngini = 0.375\nsamples = 24\nvalue = [0, 0, 18, 6, 0, 0, 0]"] ;
718 -> 720 ;
721 [label="total sulfur dioxide <= 158.5\ngini = 0.48\nsamples = 5\nvalue = [0, 0, 2, 3, 0, 0, 0]"] ;
720 -> 721 ;
722 [label="gini = 0.0\nsamples = 2\nvalue = [0, 0, 0, 2, 0, 0, 0]"] ;
721 -> 722 ;
723 [label="total sulfur dioxide <= 199.5\ngini = 0.4444\nsamples = 3\nvalue = [0, 0, 2, 1, 0, 0, 0]"] ;
721 -> 723 ;
724 [label="gini = 0.0\nsamples = 2\nvalue = [0, 0, 2, 0, 0, 0, 0]"] ;
723 -> 724 ;
725 [label="gini = 0.0\nsamples = 1\nvalue = [0, 0, 0, 1, 0, 0, 0]"] ;
723 -> 725 ;
726 [label="fixed acidity <= 7.0\ngini = 0.2659\nsamples = 19\nvalue = [0, 0, 16, 3, 0, 0, 0]"] ;
720 -> 726 ;
727 [label="total sulfur dioxide <= 139.5\ngini = 0.1172\nsamples = 16\nvalue = [0, 0, 15, 1, 0, 0, 0]"] ;
726 -> 727 ;
728 [label="gini = 0.0\nsamples = 1\nvalue = [0, 0, 0, 1, 0, 0, 0]"] ;
727 -> 728 ;
729 [label="gini = 0.0\nsamples = 15\nvalue = [0, 0, 15, 0, 0, 0, 0]"] ;
727 -> 729 ;
730 [label="sulphates <= 0.565\ngini = 0.4444\nsamples = 3\nvalue = [0, 0, 1, 2, 0, 0, 0]"] ;
726 -> 730 ;
731 [label="gini = 0.0\nsamples = 2\nvalue = [0, 0, 0, 2, 0, 0, 0]"] ;
730 -> 731 ;
732 [label="gini = 0.0\nsamples = 1\nvalue = [0, 0, 1, 0, 0, 0, 0]"] ;
730 -> 732 ;
733 [label="gini = 0.0\nsamples = 1\nvalue = [0, 1, 0, 0, 0, 0, 0]"] ;
713 -> 733 ;
734 [label="total sulfur dioxide <= 177.5\ngini = 0.6358\nsamples = 18\nvalue = [0, 2, 8, 7, 1, 0, 0]"] ;
712 -> 734 ;
735 [label="total sulfur dioxide <= 135.0\ngini = 0.449\nsamples = 7\nvalue = [0, 0, 1, 5, 1, 0, 0]"] ;
734 -> 735 ;
736 [label="sulphates <= 0.415\ngini = 0.5\nsamples = 2\nvalue = [0, 0, 1, 0, 1, 0, 0]"] ;
735 -> 736 ;
737 [label="gini = 0.0\nsamples = 1\nvalue = [0, 0, 1, 0, 0, 0, 0]"] ;
736 -> 737 ;
738 [label="gini = 0.0\nsamples = 1\nvalue = [0, 0, 0, 0, 1, 0, 0]"] ;
736 -> 738 ;
739 [label="gini = 0.0\nsamples = 5\nvalue = [0, 0, 0, 5, 0, 0, 0]"] ;
735 -> 739 ;
740 [label="pH <= 3.295\ngini = 0.5289\nsamples = 11\nvalue = [0, 2, 7, 2, 0, 0, 0]"] ;
734 -> 740 ;
741 [label="total sulfur dioxide <= 188.0\ngini = 0.6667\nsamples = 6\nvalue = [0, 2, 2, 2, 0, 0, 0]"] ;
740 -> 741 ;
742 [label="gini = 0.0\nsamples = 2\nvalue = [0, 0, 2, 0, 0, 0, 0]"] ;
741 -> 742 ;
743 [label="total sulfur dioxide <= 212.25\ngini = 0.5\nsamples = 4\nvalue = [0, 2, 0, 2, 0, 0, 0]"] ;
741 -> 743 ;
744 [label="gini = 0.0\nsamples = 2\nvalue = [0, 2, 0, 0, 0, 0, 0]"] ;
743 -> 744 ;
745 [label="gini = 0.0\nsamples = 2\nvalue = [0, 0, 0, 2, 0, 0, 0]"] ;
743 -> 745 ;
746 [label="gini = 0.0\nsamples = 5\nvalue = [0, 0, 5, 0, 0, 0, 0]"] ;
740 -> 746 ;
747 [label="alcohol <= 9.95\ngini = 0.5398\nsamples = 98\nvalue = [1, 0, 37, 55, 5, 0, 0]"] ;
685 -> 747 ;
748 [label="free sulfur dioxide <= 54.5\ngini = 0.4462\nsamples = 40\nvalue = [1, 0, 10, 28, 1, 0, 0]"] ;
747 -> 748 ;
749 [label="density <= 0.9939\ngini = 0.3309\nsamples = 31\nvalue = [1, 0, 4, 25, 1, 0, 0]"] ;
748 -> 749 ;
750 [label="gini = 0.0\nsamples = 2\nvalue = [0, 0, 2, 0, 0, 0, 0]"] ;
749 -> 750 ;
751 [label="chlorides <= 0.0715\ngini = 0.2497\nsamples = 29\nvalue = [1, 0, 2, 25, 1, 0, 0]"] ;
749 -> 751 ;
752 [label="total sulfur dioxide <= 158.0\ngini = 0.1964\nsamples = 28\nvalue = [0, 0, 2, 25, 1, 0, 0]"] ;
751 -> 752 ;
753 [label="density <= 0.9959\ngini = 0.5312\nsamples = 8\nvalue = [0, 0, 2, 5, 1, 0, 0]"] ;
752 -> 753 ;
754 [label="total sulfur dioxide <= 151.5\ngini = 0.4444\nsamples = 3\nvalue = [0, 0, 2, 0, 1, 0, 0]"] ;
753 -> 754 ;
755 [label="gini = 0.0\nsamples = 2\nvalue = [0, 0, 2, 0, 0, 0, 0]"] ;
754 -> 755 ;
756 [label="gini = 0.0\nsamples = 1\nvalue = [0, 0, 0, 0, 1, 0, 0]"] ;
754 -> 756 ;
757 [label="gini = 0.0\nsamples = 5\nvalue = [0, 0, 0, 5, 0, 0, 0]"] ;
753 -> 757 ;
758 [label="gini = 0.0\nsamples = 20\nvalue = [0, 0, 0, 20, 0, 0, 0]"] ;
752 -> 758 ;
759 [label="gini = 0.0\nsamples = 1\nvalue = [1, 0, 0, 0, 0, 0, 0]"] ;
751 -> 759 ;
760 [label="density <= 0.9963\ngini = 0.4444\nsamples = 9\nvalue = [0, 0, 6, 3, 0, 0, 0]"] ;
748 -> 760 ;
761 [label="free sulfur dioxide <= 55.5\ngini = 0.375\nsamples = 4\nvalue = [0, 0, 1, 3, 0, 0, 0]"] ;
760 -> 761 ;
762 [label="gini = 0.0\nsamples = 1\nvalue = [0, 0, 1, 0, 0, 0, 0]"] ;
761 -> 762 ;
763 [label="gini = 0.0\nsamples = 3\nvalue = [0, 0, 0, 3, 0, 0, 0]"] ;
761 -> 763 ;
764 [label="gini = 0.0\nsamples = 5\nvalue = [0, 0, 5, 0, 0, 0, 0]"] ;
760 -> 764 ;
765 [label="chlorides <= 0.0555\ngini = 0.5618\nsamples = 58\nvalue = [0, 0, 27, 27, 4, 0, 0]"] ;
747 -> 765 ;
766 [label="total sulfur dioxide <= 213.5\ngini = 0.5614\nsamples = 49\nvalue = [0, 0, 19, 26, 4, 0, 0]"] ;
765 -> 766 ;
767 [label="density <= 0.9961\ngini = 0.5816\nsamples = 42\nvalue = [0, 0, 19, 19, 4, 0, 0]"] ;
766 -> 767 ;
768 [label="total sulfur dioxide <= 193.5\ngini = 0.4911\nsamples = 27\nvalue = [0, 0, 9, 17, 1, 0, 0]"] ;
767 -> 768 ;
769 [label="volatile acidity <= 0.455\ngini = 0.4174\nsamples = 22\nvalue = [0, 0, 5, 16, 1, 0, 0]"] ;
768 -> 769 ;
770 [label="residual sugar <= 11.475\ngini = 0.335\nsamples = 20\nvalue = [0, 0, 3, 16, 1, 0, 0]"] ;
769 -> 770 ;
771 [label="chlorides <= 0.052\ngini = 0.277\nsamples = 19\nvalue = [0, 0, 2, 16, 1, 0, 0]"] ;
770 -> 771 ;
772 [label="citric acid <= 0.145\ngini = 0.2037\nsamples = 18\nvalue = [0, 0, 1, 16, 1, 0, 0]"] ;
771 -> 772 ;
773 [label="gini = 0.0\nsamples = 1\nvalue = [0, 0, 1, 0, 0, 0, 0]"] ;
772 -> 773 ;
774 [label="alcohol <= 10.25\ngini = 0.1107\nsamples = 17\nvalue = [0, 0, 0, 16, 1, 0, 0]"] ;
772 -> 774 ;
775 [label="gini = 0.0\nsamples = 14\nvalue = [0, 0, 0, 14, 0, 0, 0]"] ;
774 -> 775 ;
776 [label="fixed acidity <= 7.45\ngini = 0.4444\nsamples = 3\nvalue = [0, 0, 0, 2, 1, 0, 0]"] ;
774 -> 776 ;
777 [label="gini = 0.0\nsamples = 2\nvalue = [0, 0, 0, 2, 0, 0, 0]"] ;
776 -> 777 ;
778 [label="gini = 0.0\nsamples = 1\nvalue = [0, 0, 0, 0, 1, 0, 0]"] ;
776 -> 778 ;
779 [label="gini = 0.0\nsamples = 1\nvalue = [0, 0, 1, 0, 0, 0, 0]"] ;
771 -> 779 ;
780 [label="gini = 0.0\nsamples = 1\nvalue = [0, 0, 1, 0, 0, 0, 0]"] ;
770 -> 780 ;
781 [label="gini = 0.0\nsamples = 2\nvalue = [0, 0, 2, 0, 0, 0, 0]"] ;
769 -> 781 ;
782 [label="sulphates <= 0.53\ngini = 0.32\nsamples = 5\nvalue = [0, 0, 4, 1, 0, 0, 0]"] ;
768 -> 782 ;
783 [label="gini = 0.0\nsamples = 4\nvalue = [0, 0, 4, 0, 0, 0, 0]"] ;
782 -> 783 ;
784 [label="gini = 0.0\nsamples = 1\nvalue = [0, 0, 0, 1, 0, 0, 0]"] ;
782 -> 784 ;
785 [label="free sulfur dioxide <= 47.5\ngini = 0.4978\nsamples = 15\nvalue = [0, 0, 10, 2, 3, 0, 0]"] ;
767 -> 785 ;
786 [label="residual sugar <= 8.55\ngini = 0.2975\nsamples = 11\nvalue = [0, 0, 9, 2, 0, 0, 0]"] ;
785 -> 786 ;
787 [label="gini = 0.0\nsamples = 1\nvalue = [0, 0, 0, 1, 0, 0, 0]"] ;
786 -> 787 ;
788 [label="sulphates <= 0.34\ngini = 0.18\nsamples = 10\nvalue = [0, 0, 9, 1, 0, 0, 0]"] ;
786 -> 788 ;
789 [label="gini = 0.0\nsamples = 1\nvalue = [0, 0, 0, 1, 0, 0, 0]"] ;
788 -> 789 ;
790 [label="gini = 0.0\nsamples = 9\nvalue = [0, 0, 9, 0, 0, 0, 0]"] ;
788 -> 790 ;
791 [label="fixed acidity <= 8.2\ngini = 0.375\nsamples = 4\nvalue = [0, 0, 1, 0, 3, 0, 0]"] ;
785 -> 791 ;
792 [label="gini = 0.0\nsamples = 3\nvalue = [0, 0, 0, 0, 3, 0, 0]"] ;
791 -> 792 ;
793 [label="gini = 0.0\nsamples = 1\nvalue = [0, 0, 1, 0, 0, 0, 0]"] ;
791 -> 793 ;
794 [label="gini = 0.0\nsamples = 7\nvalue = [0, 0, 0, 7, 0, 0, 0]"] ;
766 -> 794 ;
795 [label="density <= 0.9977\ngini = 0.1975\nsamples = 9\nvalue = [0, 0, 8, 1, 0, 0, 0]"] ;
765 -> 795 ;
796 [label="gini = 0.0\nsamples = 8\nvalue = [0, 0, 8, 0, 0, 0, 0]"] ;
795 -> 796 ;
797 [label="gini = 0.0\nsamples = 1\nvalue = [0, 0, 0, 1, 0, 0, 0]"] ;
795 -> 797 ;
798 [label="total sulfur dioxide <= 165.5\ngini = 0.5618\nsamples = 83\nvalue = [1, 2, 22, 50, 5, 2, 1]"] ;
684 -> 798 ;
799 [label="pH <= 3.455\ngini = 0.4483\nsamples = 51\nvalue = [0, 0, 6, 37, 5, 2, 1]"] ;
798 -> 799 ;
800 [label="fixed acidity <= 8.0\ngini = 0.392\nsamples = 47\nvalue = [0, 0, 6, 36, 3, 1, 1]"] ;
799 -> 800 ;
801 [label="free sulfur dioxide <= 63.5\ngini = 0.3191\nsamples = 43\nvalue = [0, 0, 5, 35, 3, 0, 0]"] ;
800 -> 801 ;
802 [label="pH <= 2.96\ngini = 0.2914\nsamples = 42\nvalue = [0, 0, 4, 35, 3, 0, 0]"] ;
801 -> 802 ;
803 [label="gini = 0.0\nsamples = 1\nvalue = [0, 0, 1, 0, 0, 0, 0]"] ;
802 -> 803 ;
804 [label="citric acid <= 0.325\ngini = 0.2606\nsamples = 41\nvalue = [0, 0, 3, 35, 3, 0, 0]"] ;
802 -> 804 ;
805 [label="total sulfur dioxide <= 94.5\ngini = 0.3817\nsamples = 26\nvalue = [0, 0, 3, 20, 3, 0, 0]"] ;
804 -> 805 ;
806 [label="gini = 0.0\nsamples = 1\nvalue = [0, 0, 1, 0, 0, 0, 0]"] ;
805 -> 806 ;
807 [label="gini = 0.3392\nsamples = 25\nvalue = [0, 0, 2, 20, 3, 0, 0]"] ;
805 -> 807 ;
820 [label="gini = 0.0\nsamples = 15\nvalue = [0, 0, 0, 15, 0, 0, 0]"] ;
804 -> 820 ;
821 [label="gini = 0.0\nsamples = 1\nvalue = [0, 0, 1, 0, 0, 0, 0]"] ;
801 -> 821 ;
822 [label="volatile acidity <= 0.265\ngini = 0.75\nsamples = 4\nvalue = [0, 0, 1, 1, 0, 1, 1]"] ;
800 -> 822 ;
823 [label="gini = 0.0\nsamples = 1\nvalue = [0, 0, 0, 1, 0, 0, 0]"] ;
822 -> 823 ;
824 [label="density <= 0.9944\ngini = 0.6667\nsamples = 3\nvalue = [0, 0, 1, 0, 0, 1, 1]"] ;
822 -> 824 ;
825 [label="gini = 0.0\nsamples = 1\nvalue = [0, 0, 0, 0, 0, 1, 0]"] ;
824 -> 825 ;
826 [label="free sulfur dioxide <= 23.0\ngini = 0.5\nsamples = 2\nvalue = [0, 0, 1, 0, 0, 0, 1]"] ;
824 -> 826 ;
827 [label="gini = 0.0\nsamples = 1\nvalue = [0, 0, 1, 0, 0, 0, 0]"] ;
826 -> 827 ;
828 [label="gini = 0.0\nsamples = 1\nvalue = [0, 0, 0, 0, 0, 0, 1]"] ;
826 -> 828 ;
829 [label="sulphates <= 0.52\ngini = 0.625\nsamples = 4\nvalue = [0, 0, 0, 1, 2, 1, 0]"] ;
799 -> 829 ;
830 [label="citric acid <= 0.245\ngini = 0.5\nsamples = 2\nvalue = [0, 0, 0, 1, 0, 1, 0]"] ;
829 -> 830 ;
831 [label="gini = 0.0\nsamples = 1\nvalue = [0, 0, 0, 1, 0, 0, 0]"] ;
830 -> 831 ;
832 [label="gini = 0.0\nsamples = 1\nvalue = [0, 0, 0, 0, 0, 1, 0]"] ;
830 -> 832 ;
833 [label="gini = 0.0\nsamples = 2\nvalue = [0, 0, 0, 0, 2, 0, 0]"] ;
829 -> 833 ;
834 [label="total sulfur dioxide <= 177.5\ngini = 0.5801\nsamples = 32\nvalue = [1, 2, 16, 13, 0, 0, 0]"] ;
798 -> 834 ;
835 [label="chlorides <= 0.0465\ngini = 0.4012\nsamples = 18\nvalue = [0, 0, 13, 5, 0, 0, 0]"] ;
834 -> 835 ;
836 [label="gini = 0.0\nsamples = 9\nvalue = [0, 0, 9, 0, 0, 0, 0]"] ;
835 -> 836 ;
837 [label="volatile acidity <= 0.345\ngini = 0.4938\nsamples = 9\nvalue = [0, 0, 4, 5, 0, 0, 0]"] ;
835 -> 837 ;
838 [label="pH <= 3.06\ngini = 0.2778\nsamples = 6\nvalue = [0, 0, 1, 5, 0, 0, 0]"] ;
837 -> 838 ;
839 [label="gini = 0.0\nsamples = 1\nvalue = [0, 0, 1, 0, 0, 0, 0]"] ;
838 -> 839 ;
840 [label="gini = 0.0\nsamples = 5\nvalue = [0, 0, 0, 5, 0, 0, 0]"] ;
838 -> 840 ;
841 [label="gini = 0.0\nsamples = 3\nvalue = [0, 0, 3, 0, 0, 0, 0]"] ;
837 -> 841 ;
842 [label="citric acid <= 0.35\ngini = 0.602\nsamples = 14\nvalue = [1, 2, 3, 8, 0, 0, 0]"] ;
834 -> 842 ;
843 [label="free sulfur dioxide <= 85.5\ngini = 0.4861\nsamples = 12\nvalue = [1, 0, 3, 8, 0, 0, 0]"] ;
842 -> 843 ;
844 [label="free sulfur dioxide <= 33.0\ngini = 0.32\nsamples = 10\nvalue = [0, 0, 2, 8, 0, 0, 0]"] ;
843 -> 844 ;
845 [label="gini = 0.0\nsamples = 1\nvalue = [0, 0, 1, 0, 0, 0, 0]"] ;
844 -> 845 ;
846 [label="fixed acidity <= 6.5\ngini = 0.1975\nsamples = 9\nvalue = [0, 0, 1, 8, 0, 0, 0]"] ;
844 -> 846 ;
847 [label="gini = 0.0\nsamples = 1\nvalue = [0, 0, 1, 0, 0, 0, 0]"] ;
846 -> 847 ;
848 [label="gini = 0.0\nsamples = 8\nvalue = [0, 0, 0, 8, 0, 0, 0]"] ;
846 -> 848 ;
849 [label="chlorides <= 0.044\ngini = 0.5\nsamples = 2\nvalue = [1, 0, 1, 0, 0, 0, 0]"] ;
843 -> 849 ;
850 [label="gini = 0.0\nsamples = 1\nvalue = [0, 0, 1, 0, 0, 0, 0]"] ;
849 -> 850 ;
851 [label="gini = 0.0\nsamples = 1\nvalue = [1, 0, 0, 0, 0, 0, 0]"] ;
849 -> 851 ;
852 [label="gini = 0.0\nsamples = 2\nvalue = [0, 2, 0, 0, 0, 0, 0]"] ;
842 -> 852 ;
853 [label="chlorides <= 0.045\ngini = 0.4082\nsamples = 7\nvalue = [0, 5, 0, 2, 0, 0, 0]"] ;
683 -> 853 ;
854 [label="gini = 0.0\nsamples = 2\nvalue = [0, 0, 0, 2, 0, 0, 0]"] ;
853 -> 854 ;
855 [label="gini = 0.0\nsamples = 5\nvalue = [0, 5, 0, 0, 0, 0, 0]"] ;
853 -> 855 ;
856 [label="alcohol <= 12.775\ngini = 0.6658\nsamples = 1138\nvalue = [7, 28, 134, 536, 346, 84, 3]"] ;
0 -> 856 [labeldistance=2.5, labelangle=-45, headlabel="False"] ;
857 [label="free sulfur dioxide <= 10.5\ngini = 0.6547\nsamples = 1021\nvalue = [7, 27, 130, 506, 287, 62, 2]"] ;
856 -> 857 ;
858 [label="density <= 0.9915\ngini = 0.7322\nsamples = 60\nvalue = [2, 15, 19, 19, 3, 2, 0]"] ;
857 -> 858 ;
859 [label="sulphates <= 0.295\ngini = 0.7301\nsamples = 29\nvalue = [2, 11, 4, 9, 2, 1, 0]"] ;
858 -> 859 ;
860 [label="gini = 0.0\nsamples = 4\nvalue = [0, 0, 4, 0, 0, 0, 0]"] ;
859 -> 860 ;
861 [label="alcohol <= 11.85\ngini = 0.6624\nsamples = 25\nvalue = [2, 11, 0, 9, 2, 1, 0]"] ;
859 -> 861 ;
862 [label="sulphates <= 0.525\ngini = 0.314\nsamples = 11\nvalue = [1, 9, 0, 1, 0, 0, 0]"] ;
861 -> 862 ;
863 [label="pH <= 3.525\ngini = 0.18\nsamples = 10\nvalue = [1, 9, 0, 0, 0, 0, 0]"] ;
862 -> 863 ;
864 [label="gini = 0.0\nsamples = 9\nvalue = [0, 9, 0, 0, 0, 0, 0]"] ;
863 -> 864 ;
865 [label="gini = 0.0\nsamples = 1\nvalue = [1, 0, 0, 0, 0, 0, 0]"] ;
863 -> 865 ;
866 [label="gini = 0.0\nsamples = 1\nvalue = [0, 0, 0, 1, 0, 0, 0]"] ;
862 -> 866 ;
867 [label="residual sugar <= 4.3\ngini = 0.6224\nsamples = 14\nvalue = [1, 2, 0, 8, 2, 1, 0]"] ;
861 -> 867 ;
868 [label="pH <= 3.23\ngini = 0.2188\nsamples = 8\nvalue = [0, 1, 0, 7, 0, 0, 0]"] ;
867 -> 868 ;
869 [label="gini = 0.0\nsamples = 6\nvalue = [0, 0, 0, 6, 0, 0, 0]"] ;
868 -> 869 ;
870 [label="citric acid <= 0.485\ngini = 0.5\nsamples = 2\nvalue = [0, 1, 0, 1, 0, 0, 0]"] ;
868 -> 870 ;
871 [label="gini = 0.0\nsamples = 1\nvalue = [0, 1, 0, 0, 0, 0, 0]"] ;
870 -> 871 ;
872 [label="gini = 0.0\nsamples = 1\nvalue = [0, 0, 0, 1, 0, 0, 0]"] ;
870 -> 872 ;
873 [label="free sulfur dioxide <= 8.5\ngini = 0.7778\nsamples = 6\nvalue = [1, 1, 0, 1, 2, 1, 0]"] ;
867 -> 873 ;
874 [label="density <= 0.9909\ngini = 0.75\nsamples = 4\nvalue = [1, 1, 0, 1, 0, 1, 0]"] ;
873 -> 874 ;
875 [label="gini = 0.0\nsamples = 1\nvalue = [0, 1, 0, 0, 0, 0, 0]"] ;
874 -> 875 ;
876 [label="density <= 0.9913\ngini = 0.6667\nsamples = 3\nvalue = [1, 0, 0, 1, 0, 1, 0]"] ;
874 -> 876 ;
877 [label="gini = 0.0\nsamples = 1\nvalue = [0, 0, 0, 0, 0, 1, 0]"] ;
876 -> 877 ;
878 [label="citric acid <= 0.355\ngini = 0.5\nsamples = 2\nvalue = [1, 0, 0, 1, 0, 0, 0]"] ;
876 -> 878 ;
879 [label="gini = 0.0\nsamples = 1\nvalue = [0, 0, 0, 1, 0, 0, 0]"] ;
878 -> 879 ;
880 [label="gini = 0.0\nsamples = 1\nvalue = [1, 0, 0, 0, 0, 0, 0]"] ;
878 -> 880 ;
881 [label="gini = 0.0\nsamples = 2\nvalue = [0, 0, 0, 0, 2, 0, 0]"] ;
873 -> 881 ;
882 [label="chlorides <= 0.0445\ngini = 0.6431\nsamples = 31\nvalue = [0, 4, 15, 10, 1, 1, 0]"] ;
858 -> 882 ;
883 [label="sulphates <= 0.835\ngini = 0.5802\nsamples = 18\nvalue = [0, 3, 11, 2, 1, 1, 0]"] ;
882 -> 883 ;
884 [label="residual sugar <= 7.025\ngini = 0.5\nsamples = 16\nvalue = [0, 1, 11, 2, 1, 1, 0]"] ;
883 -> 884 ;
885 [label="sulphates <= 0.42\ngini = 0.1653\nsamples = 11\nvalue = [0, 0, 10, 0, 1, 0, 0]"] ;
884 -> 885 ;
886 [label="gini = 0.0\nsamples = 1\nvalue = [0, 0, 0, 0, 1, 0, 0]"] ;
885 -> 886 ;
887 [label="gini = 0.0\nsamples = 10\nvalue = [0, 0, 10, 0, 0, 0, 0]"] ;
885 -> 887 ;
888 [label="fixed acidity <= 6.8\ngini = 0.72\nsamples = 5\nvalue = [0, 1, 1, 2, 0, 1, 0]"] ;
884 -> 888 ;
889 [label="alcohol <= 11.95\ngini = 0.6667\nsamples = 3\nvalue = [0, 1, 1, 0, 0, 1, 0]"] ;
888 -> 889 ;
890 [label="total sulfur dioxide <= 128.0\ngini = 0.5\nsamples = 2\nvalue = [0, 1, 0, 0, 0, 1, 0]"] ;
889 -> 890 ;
891 [label="gini = 0.0\nsamples = 1\nvalue = [0, 0, 0, 0, 0, 1, 0]"] ;
890 -> 891 ;
892 [label="gini = 0.0\nsamples = 1\nvalue = [0, 1, 0, 0, 0, 0, 0]"] ;
890 -> 892 ;
893 [label="gini = 0.0\nsamples = 1\nvalue = [0, 0, 1, 0, 0, 0, 0]"] ;
889 -> 893 ;
894 [label="gini = 0.0\nsamples = 2\nvalue = [0, 0, 0, 2, 0, 0, 0]"] ;
888 -> 894 ;
895 [label="gini = 0.0\nsamples = 2\nvalue = [0, 2, 0, 0, 0, 0, 0]"] ;
883 -> 895 ;
896 [label="volatile acidity <= 0.29\ngini = 0.5207\nsamples = 13\nvalue = [0, 1, 4, 8, 0, 0, 0]"] ;
882 -> 896 ;
897 [label="gini = 0.0\nsamples = 5\nvalue = [0, 0, 0, 5, 0, 0, 0]"] ;
896 -> 897 ;
898 [label="pH <= 3.33\ngini = 0.5938\nsamples = 8\nvalue = [0, 1, 4, 3, 0, 0, 0]"] ;
896 -> 898 ;
899 [label="chlorides <= 0.047\ngini = 0.32\nsamples = 5\nvalue = [0, 1, 4, 0, 0, 0, 0]"] ;
898 -> 899 ;
900 [label="gini = 0.0\nsamples = 1\nvalue = [0, 1, 0, 0, 0, 0, 0]"] ;
899 -> 900 ;
901 [label="gini = 0.0\nsamples = 4\nvalue = [0, 0, 4, 0, 0, 0, 0]"] ;
899 -> 901 ;
902 [label="gini = 0.0\nsamples = 3\nvalue = [0, 0, 0, 3, 0, 0, 0]"] ;
898 -> 902 ;
903 [label="chlorides <= 0.0395\ngini = 0.6384\nsamples = 961\nvalue = [5, 12, 111, 487, 284, 60, 2]"] ;
857 -> 903 ;
904 [label="pH <= 3.245\ngini = 0.6403\nsamples = 617\nvalue = [3, 7, 56, 295, 212, 42, 2]"] ;
903 -> 904 ;
905 [label="gini = 0.623\nsamples = 385\nvalue = [3, 6, 41, 202, 114, 19, 0]"] ;
904 -> 905 ;
1138 [label="gini = 0.6468\nsamples = 232\nvalue = [0, 1, 15, 93, 98, 23, 2]"] ;
904 -> 1138 ;
1295 [label="free sulfur dioxide <= 60.5\ngini = 0.6161\nsamples = 344\nvalue = [2, 5, 55, 192, 72, 18, 0]"] ;
903 -> 1295 ;
1296 [label="pH <= 3.045\ngini = 0.5956\nsamples = 328\nvalue = [1, 5, 53, 191, 63, 15, 0]"] ;
1295 -> 1296 ;
1297 [label="total sulfur dioxide <= 74.5\ngini = 0.3111\nsamples = 45\nvalue = [0, 1, 3, 37, 4, 0, 0]"] ;
1296 -> 1297 ;
1298 [label="residual sugar <= 3.55\ngini = 0.5\nsamples = 2\nvalue = [0, 1, 0, 0, 1, 0, 0]"] ;
1297 -> 1298 ;
1299 [label="gini = 0.0\nsamples = 1\nvalue = [0, 0, 0, 0, 1, 0, 0]"] ;
1298 -> 1299 ;
1300 [label="gini = 0.0\nsamples = 1\nvalue = [0, 1, 0, 0, 0, 0, 0]"] ;
1298 -> 1300 ;
1301 [label="total sulfur dioxide <= 198.0\ngini = 0.2499\nsamples = 43\nvalue = [0, 0, 3, 37, 3, 0, 0]"] ;
1297 -> 1301 ;
1302 [label="volatile acidity <= 0.135\ngini = 0.2166\nsamples = 42\nvalue = [0, 0, 2, 37, 3, 0, 0]"] ;
1301 -> 1302 ;
1303 [label="gini = 0.0\nsamples = 1\nvalue = [0, 0, 1, 0, 0, 0, 0]"] ;
1302 -> 1303 ;
1304 [label="volatile acidity <= 0.225\ngini = 0.1797\nsamples = 41\nvalue = [0, 0, 1, 37, 3, 0, 0]"] ;
1302 -> 1304 ;
1305 [label="volatile acidity <= 0.205\ngini = 0.46\nsamples = 10\nvalue = [0, 0, 1, 7, 2, 0, 0]"] ;
1304 -> 1305 ;
1306 [label="gini = 0.0\nsamples = 6\nvalue = [0, 0, 0, 6, 0, 0, 0]"] ;
1305 -> 1306 ;
1307 [label="citric acid <= 0.32\ngini = 0.625\nsamples = 4\nvalue = [0, 0, 1, 1, 2, 0, 0]"] ;
1305 -> 1307 ;
1308 [label="density <= 0.9919\ngini = 0.5\nsamples = 2\nvalue = [0, 0, 1, 1, 0, 0, 0]"] ;
1307 -> 1308 ;
1309 [label="gini = 0.0\nsamples = 1\nvalue = [0, 0, 1, 0, 0, 0, 0]"] ;
1308 -> 1309 ;
1310 [label="gini = 0.0\nsamples = 1\nvalue = [0, 0, 0, 1, 0, 0, 0]"] ;
1308 -> 1310 ;
1311 [label="gini = 0.0\nsamples = 2\nvalue = [0, 0, 0, 0, 2, 0, 0]"] ;
1307 -> 1311 ;
1312 [label="chlorides <= 0.0405\ngini = 0.0624\nsamples = 31\nvalue = [0, 0, 0, 30, 1, 0, 0]"] ;
1304 -> 1312 ;
1313 [label="residual sugar <= 1.45\ngini = 0.5\nsamples = 2\nvalue = [0, 0, 0, 1, 1, 0, 0]"] ;
1312 -> 1313 ;
1314 [label="gini = 0.0\nsamples = 1\nvalue = [0, 0, 0, 1, 0, 0, 0]"] ;
1313 -> 1314 ;
1315 [label="gini = 0.0\nsamples = 1\nvalue = [0, 0, 0, 0, 1, 0, 0]"] ;
1313 -> 1315 ;
1316 [label="gini = 0.0\nsamples = 29\nvalue = [0, 0, 0, 29, 0, 0, 0]"] ;
1312 -> 1316 ;
1317 [label="gini = 0.0\nsamples = 1\nvalue = [0, 0, 1, 0, 0, 0, 0]"] ;
1301 -> 1317 ;
1318 [label="volatile acidity <= 0.2725\ngini = 0.6262\nsamples = 283\nvalue = [1, 4, 50, 154, 59, 15, 0]"] ;
1296 -> 1318 ;
1319 [label="density <= 0.9907\ngini = 0.548\nsamples = 178\nvalue = [1, 0, 29, 112, 30, 6, 0]"] ;
1318 -> 1319 ;
1320 [label="citric acid <= 0.34\ngini = 0.6496\nsamples = 25\nvalue = [0, 0, 5, 7, 12, 1, 0]"] ;
1319 -> 1320 ;
1321 [label="fixed acidity <= 5.7\ngini = 0.6719\nsamples = 16\nvalue = [0, 0, 5, 7, 3, 1, 0]"] ;
1320 -> 1321 ;
1322 [label="sulphates <= 0.63\ngini = 0.375\nsamples = 4\nvalue = [0, 0, 3, 0, 1, 0, 0]"] ;
1321 -> 1322 ;
1323 [label="gini = 0.0\nsamples = 3\nvalue = [0, 0, 3, 0, 0, 0, 0]"] ;
1322 -> 1323 ;
1324 [label="gini = 0.0\nsamples = 1\nvalue = [0, 0, 0, 0, 1, 0, 0]"] ;
1322 -> 1324 ;
1325 [label="sulphates <= 0.65\ngini = 0.5972\nsamples = 12\nvalue = [0, 0, 2, 7, 2, 1, 0]"] ;
1321 -> 1325 ;
1326 [label="total sulfur dioxide <= 114.5\ngini = 0.46\nsamples = 10\nvalue = [0, 0, 1, 7, 2, 0, 0]"] ;
1325 -> 1326 ;
1327 [label="density <= 0.9904\ngini = 0.2188\nsamples = 8\nvalue = [0, 0, 0, 7, 1, 0, 0]"] ;
1326 -> 1327 ;
1328 [label="gini = 0.0\nsamples = 6\nvalue = [0, 0, 0, 6, 0, 0, 0]"] ;
1327 -> 1328 ;
1329 [label="residual sugar <= 1.2\ngini = 0.5\nsamples = 2\nvalue = [0, 0, 0, 1, 1, 0, 0]"] ;
1327 -> 1329 ;
1330 [label="gini = 0.0\nsamples = 1\nvalue = [0, 0, 0, 1, 0, 0, 0]"] ;
1329 -> 1330 ;
1331 [label="gini = 0.0\nsamples = 1\nvalue = [0, 0, 0, 0, 1, 0, 0]"] ;
1329 -> 1331 ;
1332 [label="total sulfur dioxide <= 123.0\ngini = 0.5\nsamples = 2\nvalue = [0, 0, 1, 0, 1, 0, 0]"] ;
1326 -> 1332 ;
1333 [label="gini = 0.0\nsamples = 1\nvalue = [0, 0, 0, 0, 1, 0, 0]"] ;
1332 -> 1333 ;
1334 [label="gini = 0.0\nsamples = 1\nvalue = [0, 0, 1, 0, 0, 0, 0]"] ;
1332 -> 1334 ;
1335 [label="density <= 0.9899\ngini = 0.5\nsamples = 2\nvalue = [0, 0, 1, 0, 0, 1, 0]"] ;
1325 -> 1335 ;
1336 [label="gini = 0.0\nsamples = 1\nvalue = [0, 0, 0, 0, 0, 1, 0]"] ;
1335 -> 1336 ;
1337 [label="gini = 0.0\nsamples = 1\nvalue = [0, 0, 1, 0, 0, 0, 0]"] ;
1335 -> 1337 ;
1338 [label="gini = 0.0\nsamples = 9\nvalue = [0, 0, 0, 0, 9, 0, 0]"] ;
1320 -> 1338 ;
1339 [label="fixed acidity <= 6.15\ngini = 0.4895\nsamples = 153\nvalue = [1, 0, 24, 105, 18, 5, 0]"] ;
1319 -> 1339 ;
1340 [label="gini = 0.0\nsamples = 21\nvalue = [0, 0, 0, 21, 0, 0, 0]"] ;
1339 -> 1340 ;
1341 [label="free sulfur dioxide <= 12.5\ngini = 0.5419\nsamples = 132\nvalue = [1, 0, 24, 84, 18, 5, 0]"] ;
1339 -> 1341 ;
1342 [label="gini = 0.0\nsamples = 2\nvalue = [0, 0, 0, 0, 2, 0, 0]"] ;
1341 -> 1342 ;
1343 [label="fixed acidity <= 6.75\ngini = 0.5317\nsamples = 130\nvalue = [1, 0, 24, 84, 16, 5, 0]"] ;
1341 -> 1343 ;
1344 [label="fixed acidity <= 6.45\ngini = 0.675\nsamples = 40\nvalue = [1, 0, 10, 19, 7, 3, 0]"] ;
1343 -> 1344 ;
1345 [label="residual sugar <= 8.55\ngini = 0.4917\nsamples = 22\nvalue = [1, 0, 4, 15, 2, 0, 0]"] ;
1344 -> 1345 ;
1346 [label="residual sugar <= 0.8\ngini = 0.3765\nsamples = 18\nvalue = [1, 0, 1, 14, 2, 0, 0]"] ;
1345 -> 1346 ;
1347 [label="gini = 0.0\nsamples = 1\nvalue = [1, 0, 0, 0, 0, 0, 0]"] ;
1346 -> 1347 ;
1348 [label="total sulfur dioxide <= 84.5\ngini = 0.3045\nsamples = 17\nvalue = [0, 0, 1, 14, 2, 0, 0]"] ;
1346 -> 1348 ;
1349 [label="gini = 0.0\nsamples = 1\nvalue = [0, 0, 0, 0, 1, 0, 0]"] ;
1348 -> 1349 ;
1350 [label="volatile acidity <= 0.1275\ngini = 0.2266\nsamples = 16\nvalue = [0, 0, 1, 14, 1, 0, 0]"] ;
1348 -> 1350 ;
1351 [label="gini = 0.0\nsamples = 1\nvalue = [0, 0, 0, 0, 1, 0, 0]"] ;
1350 -> 1351 ;
1352 [label="chlorides <= 0.078\ngini = 0.1244\nsamples = 15\nvalue = [0, 0, 1, 14, 0, 0, 0]"] ;
1350 -> 1352 ;
1353 [label="gini = 0.0\nsamples = 13\nvalue = [0, 0, 0, 13, 0, 0, 0]"] ;
1352 -> 1353 ;
1354 [label="chlorides <= 0.104\ngini = 0.5\nsamples = 2\nvalue = [0, 0, 1, 1, 0, 0, 0]"] ;
1352 -> 1354 ;
1355 [label="gini = 0.0\nsamples = 1\nvalue = [0, 0, 1, 0, 0, 0, 0]"] ;
1354 -> 1355 ;
1356 [label="gini = 0.0\nsamples = 1\nvalue = [0, 0, 0, 1, 0, 0, 0]"] ;
1354 -> 1356 ;
1357 [label="citric acid <= 0.275\ngini = 0.375\nsamples = 4\nvalue = [0, 0, 3, 1, 0, 0, 0]"] ;
1345 -> 1357 ;
1358 [label="gini = 0.0\nsamples = 1\nvalue = [0, 0, 0, 1, 0, 0, 0]"] ;
1357 -> 1358 ;
1359 [label="gini = 0.0\nsamples = 3\nvalue = [0, 0, 3, 0, 0, 0, 0]"] ;
1357 -> 1359 ;
1360 [label="sulphates <= 0.475\ngini = 0.7346\nsamples = 18\nvalue = [0, 0, 6, 4, 5, 3, 0]"] ;
1344 -> 1360 ;
1361 [label="volatile acidity <= 0.205\ngini = 0.4062\nsamples = 8\nvalue = [0, 0, 6, 1, 1, 0, 0]"] ;
1360 -> 1361 ;
1362 [label="free sulfur dioxide <= 47.0\ngini = 0.5\nsamples = 2\nvalue = [0, 0, 0, 1, 1, 0, 0]"] ;
1361 -> 1362 ;
1363 [label="gini = 0.0\nsamples = 1\nvalue = [0, 0, 0, 0, 1, 0, 0]"] ;
1362 -> 1363 ;
1364 [label="gini = 0.0\nsamples = 1\nvalue = [0, 0, 0, 1, 0, 0, 0]"] ;
1362 -> 1364 ;
1365 [label="gini = 0.0\nsamples = 6\nvalue = [0, 0, 6, 0, 0, 0, 0]"] ;
1361 -> 1365 ;
1366 [label="density <= 0.9928\ngini = 0.66\nsamples = 10\nvalue = [0, 0, 0, 3, 4, 3, 0]"] ;
1360 -> 1366 ;
1367 [label="free sulfur dioxide <= 30.5\ngini = 0.5\nsamples = 6\nvalue = [0, 0, 0, 0, 3, 3, 0]"] ;
1366 -> 1367 ;
1368 [label="gini = 0.0\nsamples = 3\nvalue = [0, 0, 0, 0, 0, 3, 0]"] ;
1367 -> 1368 ;
1369 [label="gini = 0.0\nsamples = 3\nvalue = [0, 0, 0, 0, 3, 0, 0]"] ;
1367 -> 1369 ;
1370 [label="alcohol <= 10.95\ngini = 0.375\nsamples = 4\nvalue = [0, 0, 0, 3, 1, 0, 0]"] ;
1366 -> 1370 ;
1371 [label="gini = 0.0\nsamples = 3\nvalue = [0, 0, 0, 3, 0, 0, 0]"] ;
1370 -> 1371 ;
1372 [label="gini = 0.0\nsamples = 1\nvalue = [0, 0, 0, 0, 1, 0, 0]"] ;
1370 -> 1372 ;
1373 [label="pH <= 3.39\ngini = 0.4437\nsamples = 90\nvalue = [0, 0, 14, 65, 9, 2, 0]"] ;
1343 -> 1373 ;
1374 [label="residual sugar <= 1.25\ngini = 0.3995\nsamples = 83\nvalue = [0, 0, 10, 63, 8, 2, 0]"] ;
1373 -> 1374 ;
1375 [label="free sulfur dioxide <= 25.5\ngini = 0.4959\nsamples = 11\nvalue = [0, 0, 5, 6, 0, 0, 0]"] ;
1374 -> 1375 ;
1376 [label="gini = 0.0\nsamples = 5\nvalue = [0, 0, 0, 5, 0, 0, 0]"] ;
1375 -> 1376 ;
1377 [label="fixed acidity <= 7.1\ngini = 0.2778\nsamples = 6\nvalue = [0, 0, 5, 1, 0, 0, 0]"] ;
1375 -> 1377 ;
1378 [label="gini = 0.0\nsamples = 1\nvalue = [0, 0, 0, 1, 0, 0, 0]"] ;
1377 -> 1378 ;
1379 [label="gini = 0.0\nsamples = 5\nvalue = [0, 0, 5, 0, 0, 0, 0]"] ;
1377 -> 1379 ;
1380 [label="pH <= 3.125\ngini = 0.3553\nsamples = 72\nvalue = [0, 0, 5, 57, 8, 2, 0]"] ;
1374 -> 1380 ;
1381 [label="citric acid <= 0.295\ngini = 0.4956\nsamples = 30\nvalue = [0, 0, 2, 20, 7, 1, 0]"] ;
1380 -> 1381 ;
1382 [label="gini = 0.0\nsamples = 6\nvalue = [0, 0, 0, 6, 0, 0, 0]"] ;
1381 -> 1382 ;
1383 [label="residual sugar <= 1.95\ngini = 0.566\nsamples = 24\nvalue = [0, 0, 2, 14, 7, 1, 0]"] ;
1381 -> 1383 ;
1384 [label="gini = 0.0\nsamples = 6\nvalue = [0, 0, 0, 6, 0, 0, 0]"] ;
1383 -> 1384 ;
1385 [label="density <= 0.9949\ngini = 0.6358\nsamples = 18\nvalue = [0, 0, 2, 8, 7, 1, 0]"] ;
1383 -> 1385 ;
1386 [label="free sulfur dioxide <= 26.5\ngini = 0.6429\nsamples = 14\nvalue = [0, 0, 2, 4, 7, 1, 0]"] ;
1385 -> 1386 ;
1387 [label="density <= 0.9913\ngini = 0.4444\nsamples = 3\nvalue = [0, 0, 2, 1, 0, 0, 0]"] ;
1386 -> 1387 ;
1388 [label="gini = 0.0\nsamples = 1\nvalue = [0, 0, 0, 1, 0, 0, 0]"] ;
1387 -> 1388 ;
1389 [label="gini = 0.0\nsamples = 2\nvalue = [0, 0, 2, 0, 0, 0, 0]"] ;
1387 -> 1389 ;
1390 [label="fixed acidity <= 7.1\ngini = 0.5124\nsamples = 11\nvalue = [0, 0, 0, 3, 7, 1, 0]"] ;
1386 -> 1390 ;
1391 [label="fixed acidity <= 6.95\ngini = 0.6111\nsamples = 6\nvalue = [0, 0, 0, 3, 2, 1, 0]"] ;
1390 -> 1391 ;
1392 [label="pH <= 3.105\ngini = 0.48\nsamples = 5\nvalue = [0, 0, 0, 3, 2, 0, 0]"] ;
1391 -> 1392 ;
1393 [label="chlorides <= 0.0445\ngini = 0.4444\nsamples = 3\nvalue = [0, 0, 0, 1, 2, 0, 0]"] ;
1392 -> 1393 ;
1394 [label="gini = 0.0\nsamples = 1\nvalue = [0, 0, 0, 1, 0, 0, 0]"] ;
1393 -> 1394 ;
1395 [label="gini = 0.0\nsamples = 2\nvalue = [0, 0, 0, 0, 2, 0, 0]"] ;
1393 -> 1395 ;
1396 [label="gini = 0.0\nsamples = 2\nvalue = [0, 0, 0, 2, 0, 0, 0]"] ;
1392 -> 1396 ;
1397 [label="gini = 0.0\nsamples = 1\nvalue = [0, 0, 0, 0, 0, 1, 0]"] ;
1391 -> 1397 ;
1398 [label="gini = 0.0\nsamples = 5\nvalue = [0, 0, 0, 0, 5, 0, 0]"] ;
1390 -> 1398 ;
1399 [label="gini = 0.0\nsamples = 4\nvalue = [0, 0, 0, 4, 0, 0, 0]"] ;
1385 -> 1399 ;
1400 [label="fixed acidity <= 6.95\ngini = 0.2177\nsamples = 42\nvalue = [0, 0, 3, 37, 1, 1, 0]"] ;
1380 -> 1400 ;
1401 [label="pH <= 3.285\ngini = 0.5139\nsamples = 12\nvalue = [0, 0, 2, 8, 1, 1, 0]"] ;
1400 -> 1401 ;
1402 [label="alcohol <= 10.9\ngini = 0.4298\nsamples = 11\nvalue = [0, 0, 2, 8, 0, 1, 0]"] ;
1401 -> 1402 ;
1403 [label="gini = 0.0\nsamples = 6\nvalue = [0, 0, 0, 6, 0, 0, 0]"] ;
1402 -> 1403 ;
1404 [label="total sulfur dioxide <= 124.5\ngini = 0.64\nsamples = 5\nvalue = [0, 0, 2, 2, 0, 1, 0]"] ;
1402 -> 1404 ;
1405 [label="free sulfur dioxide <= 36.5\ngini = 0.4444\nsamples = 3\nvalue = [0, 0, 0, 2, 0, 1, 0]"] ;
1404 -> 1405 ;
1406 [label="gini = 0.0\nsamples = 2\nvalue = [0, 0, 0, 2, 0, 0, 0]"] ;
1405 -> 1406 ;
1407 [label="gini = 0.0\nsamples = 1\nvalue = [0, 0, 0, 0, 0, 1, 0]"] ;
1405 -> 1407 ;
1408 [label="gini = 0.0\nsamples = 2\nvalue = [0, 0, 2, 0, 0, 0, 0]"] ;
1404 -> 1408 ;
1409 [label="gini = 0.0\nsamples = 1\nvalue = [0, 0, 0, 0, 1, 0, 0]"] ;
1401 -> 1409 ;
1410 [label="fixed acidity <= 8.15\ngini = 0.0644\nsamples = 30\nvalue = [0, 0, 1, 29, 0, 0, 0]"] ;
1400 -> 1410 ;
1411 [label="gini = 0.0\nsamples = 27\nvalue = [0, 0, 0, 27, 0, 0, 0]"] ;
1410 -> 1411 ;
1412 [label="citric acid <= 0.435\ngini = 0.4444\nsamples = 3\nvalue = [0, 0, 1, 2, 0, 0, 0]"] ;
1410 -> 1412 ;
1413 [label="gini = 0.0\nsamples = 1\nvalue = [0, 0, 1, 0, 0, 0, 0]"] ;
1412 -> 1413 ;
1414 [label="gini = 0.0\nsamples = 2\nvalue = [0, 0, 0, 2, 0, 0, 0]"] ;
1412 -> 1414 ;
1415 [label="sulphates <= 0.51\ngini = 0.5714\nsamples = 7\nvalue = [0, 0, 4, 2, 1, 0, 0]"] ;
1373 -> 1415 ;
1416 [label="free sulfur dioxide <= 28.0\ngini = 0.4444\nsamples = 3\nvalue = [0, 0, 0, 2, 1, 0, 0]"] ;
1415 -> 1416 ;
1417 [label="gini = 0.0\nsamples = 2\nvalue = [0, 0, 0, 2, 0, 0, 0]"] ;
1416 -> 1417 ;
1418 [label="gini = 0.0\nsamples = 1\nvalue = [0, 0, 0, 0, 1, 0, 0]"] ;
1416 -> 1418 ;
1419 [label="gini = 0.0\nsamples = 4\nvalue = [0, 0, 4, 0, 0, 0, 0]"] ;
1415 -> 1419 ;
1420 [label="sulphates <= 0.585\ngini = 0.7149\nsamples = 105\nvalue = [0, 4, 21, 42, 29, 9, 0]"] ;
1318 -> 1420 ;
1421 [label="sulphates <= 0.335\ngini = 0.702\nsamples = 88\nvalue = [0, 3, 21, 39, 16, 9, 0]"] ;
1420 -> 1421 ;
1422 [label="fixed acidity <= 7.05\ngini = 0.6531\nsamples = 7\nvalue = [0, 2, 2, 0, 0, 3, 0]"] ;
1421 -> 1422 ;
1423 [label="residual sugar <= 9.775\ngini = 0.48\nsamples = 5\nvalue = [0, 2, 0, 0, 0, 3, 0]"] ;
1422 -> 1423 ;
1424 [label="gini = 0.0\nsamples = 2\nvalue = [0, 2, 0, 0, 0, 0, 0]"] ;
1423 -> 1424 ;
1425 [label="gini = 0.0\nsamples = 3\nvalue = [0, 0, 0, 0, 0, 3, 0]"] ;
1423 -> 1425 ;
1426 [label="gini = 0.0\nsamples = 2\nvalue = [0, 0, 2, 0, 0, 0, 0]"] ;
1422 -> 1426 ;
1427 [label="volatile acidity <= 0.295\ngini = 0.6685\nsamples = 81\nvalue = [0, 1, 19, 39, 16, 6, 0]"] ;
1421 -> 1427 ;
1428 [label="fixed acidity <= 6.95\ngini = 0.7221\nsamples = 23\nvalue = [0, 0, 8, 5, 7, 3, 0]"] ;
1427 -> 1428 ;
1429 [label="density <= 0.9916\ngini = 0.6489\nsamples = 15\nvalue = [0, 0, 2, 5, 7, 1, 0]"] ;
1428 -> 1429 ;
1430 [label="free sulfur dioxide <= 34.0\ngini = 0.6173\nsamples = 9\nvalue = [0, 0, 1, 5, 2, 1, 0]"] ;
1429 -> 1430 ;
1431 [label="fixed acidity <= 6.4\ngini = 0.625\nsamples = 4\nvalue = [0, 0, 1, 0, 2, 1, 0]"] ;
1430 -> 1431 ;
1432 [label="volatile acidity <= 0.285\ngini = 0.5\nsamples = 2\nvalue = [0, 0, 1, 0, 0, 1, 0]"] ;
1431 -> 1432 ;
1433 [label="gini = 0.0\nsamples = 1\nvalue = [0, 0, 1, 0, 0, 0, 0]"] ;
1432 -> 1433 ;
1434 [label="gini = 0.0\nsamples = 1\nvalue = [0, 0, 0, 0, 0, 1, 0]"] ;
1432 -> 1434 ;
1435 [label="gini = 0.0\nsamples = 2\nvalue = [0, 0, 0, 0, 2, 0, 0]"] ;
1431 -> 1435 ;
1436 [label="gini = 0.0\nsamples = 5\nvalue = [0, 0, 0, 5, 0, 0, 0]"] ;
1430 -> 1436 ;
1437 [label="citric acid <= 0.35\ngini = 0.2778\nsamples = 6\nvalue = [0, 0, 1, 0, 5, 0, 0]"] ;
1429 -> 1437 ;
1438 [label="gini = 0.0\nsamples = 5\nvalue = [0, 0, 0, 0, 5, 0, 0]"] ;
1437 -> 1438 ;
1439 [label="gini = 0.0\nsamples = 1\nvalue = [0, 0, 1, 0, 0, 0, 0]"] ;
1437 -> 1439 ;
1440 [label="free sulfur dioxide <= 35.0\ngini = 0.375\nsamples = 8\nvalue = [0, 0, 6, 0, 0, 2, 0]"] ;
1428 -> 1440 ;
1441 [label="gini = 0.0\nsamples = 6\nvalue = [0, 0, 6, 0, 0, 0, 0]"] ;
1440 -> 1441 ;
1442 [label="gini = 0.0\nsamples = 2\nvalue = [0, 0, 0, 0, 0, 2, 0]"] ;
1440 -> 1442 ;
1443 [label="citric acid <= 0.285\ngini = 0.5933\nsamples = 58\nvalue = [0, 1, 11, 34, 9, 3, 0]"] ;
1427 -> 1443 ;
1444 [label="alcohol <= 11.5\ngini = 0.6818\nsamples = 22\nvalue = [0, 1, 8, 8, 5, 0, 0]"] ;
1443 -> 1444 ;
1445 [label="volatile acidity <= 0.43\ngini = 0.568\nsamples = 13\nvalue = [0, 1, 8, 2, 2, 0, 0]"] ;
1444 -> 1445 ;
1446 [label="total sulfur dioxide <= 112.5\ngini = 0.34\nsamples = 10\nvalue = [0, 1, 8, 1, 0, 0, 0]"] ;
1445 -> 1446 ;
1447 [label="gini = 0.0\nsamples = 1\nvalue = [0, 1, 0, 0, 0, 0, 0]"] ;
1446 -> 1447 ;
1448 [label="chlorides <= 0.0415\ngini = 0.1975\nsamples = 9\nvalue = [0, 0, 8, 1, 0, 0, 0]"] ;
1446 -> 1448 ;
1449 [label="volatile acidity <= 0.33\ngini = 0.5\nsamples = 2\nvalue = [0, 0, 1, 1, 0, 0, 0]"] ;
1448 -> 1449 ;
1450 [label="gini = 0.0\nsamples = 1\nvalue = [0, 0, 0, 1, 0, 0, 0]"] ;
1449 -> 1450 ;
1451 [label="gini = 0.0\nsamples = 1\nvalue = [0, 0, 1, 0, 0, 0, 0]"] ;
1449 -> 1451 ;
1452 [label="gini = 0.0\nsamples = 7\nvalue = [0, 0, 7, 0, 0, 0, 0]"] ;
1448 -> 1452 ;
1453 [label="citric acid <= 0.23\ngini = 0.4444\nsamples = 3\nvalue = [0, 0, 0, 1, 2, 0, 0]"] ;
1445 -> 1453 ;
1454 [label="gini = 0.0\nsamples = 1\nvalue = [0, 0, 0, 1, 0, 0, 0]"] ;
1453 -> 1454 ;
1455 [label="gini = 0.0\nsamples = 2\nvalue = [0, 0, 0, 0, 2, 0, 0]"] ;
1453 -> 1455 ;
1456 [label="density <= 0.9907\ngini = 0.4444\nsamples = 9\nvalue = [0, 0, 0, 6, 3, 0, 0]"] ;
1444 -> 1456 ;
1457 [label="gini = 0.0\nsamples = 2\nvalue = [0, 0, 0, 0, 2, 0, 0]"] ;
1456 -> 1457 ;
1458 [label="fixed acidity <= 7.4\ngini = 0.2449\nsamples = 7\nvalue = [0, 0, 0, 6, 1, 0, 0]"] ;
1456 -> 1458 ;
1459 [label="gini = 0.0\nsamples = 6\nvalue = [0, 0, 0, 6, 0, 0, 0]"] ;
1458 -> 1459 ;
1460 [label="gini = 0.0\nsamples = 1\nvalue = [0, 0, 0, 0, 1, 0, 0]"] ;
1458 -> 1460 ;
1461 [label="volatile acidity <= 0.615\ngini = 0.4522\nsamples = 36\nvalue = [0, 0, 3, 26, 4, 3, 0]"] ;
1443 -> 1461 ;
1462 [label="residual sugar <= 5.75\ngini = 0.4245\nsamples = 35\nvalue = [0, 0, 2, 26, 4, 3, 0]"] ;
1461 -> 1462 ;
1463 [label="density <= 0.991\ngini = 0.5413\nsamples = 22\nvalue = [0, 0, 1, 14, 4, 3, 0]"] ;
1462 -> 1463 ;
1464 [label="free sulfur dioxide <= 40.5\ngini = 0.1653\nsamples = 11\nvalue = [0, 0, 0, 10, 1, 0, 0]"] ;
1463 -> 1464 ;
1465 [label="gini = 0.0\nsamples = 10\nvalue = [0, 0, 0, 10, 0, 0, 0]"] ;
1464 -> 1465 ;
1466 [label="gini = 0.0\nsamples = 1\nvalue = [0, 0, 0, 0, 1, 0, 0]"] ;
1464 -> 1466 ;
1467 [label="volatile acidity <= 0.345\ngini = 0.7107\nsamples = 11\nvalue = [0, 0, 1, 4, 3, 3, 0]"] ;
1463 -> 1467 ;
1468 [label="total sulfur dioxide <= 146.0\ngini = 0.5714\nsamples = 7\nvalue = [0, 0, 1, 4, 2, 0, 0]"] ;
1467 -> 1468 ;
1469 [label="chlorides <= 0.0485\ngini = 0.625\nsamples = 4\nvalue = [0, 0, 1, 1, 2, 0, 0]"] ;
1468 -> 1469 ;
1470 [label="gini = 0.0\nsamples = 2\nvalue = [0, 0, 0, 0, 2, 0, 0]"] ;
1469 -> 1470 ;
1471 [label="chlorides <= 0.1085\ngini = 0.5\nsamples = 2\nvalue = [0, 0, 1, 1, 0, 0, 0]"] ;
1469 -> 1471 ;
1472 [label="gini = 0.0\nsamples = 1\nvalue = [0, 0, 1, 0, 0, 0, 0]"] ;
1471 -> 1472 ;
1473 [label="gini = 0.0\nsamples = 1\nvalue = [0, 0, 0, 1, 0, 0, 0]"] ;
1471 -> 1473 ;
1474 [label="gini = 0.0\nsamples = 3\nvalue = [0, 0, 0, 3, 0, 0, 0]"] ;
1468 -> 1474 ;
1475 [label="total sulfur dioxide <= 139.5\ngini = 0.375\nsamples = 4\nvalue = [0, 0, 0, 0, 1, 3, 0]"] ;
1467 -> 1475 ;
1476 [label="gini = 0.0\nsamples = 3\nvalue = [0, 0, 0, 0, 0, 3, 0]"] ;
1475 -> 1476 ;
1477 [label="gini = 0.0\nsamples = 1\nvalue = [0, 0, 0, 0, 1, 0, 0]"] ;
1475 -> 1477 ;
1478 [label="alcohol <= 12.25\ngini = 0.142\nsamples = 13\nvalue = [0, 0, 1, 12, 0, 0, 0]"] ;
1462 -> 1478 ;
1479 [label="gini = 0.0\nsamples = 12\nvalue = [0, 0, 0, 12, 0, 0, 0]"] ;
1478 -> 1479 ;
1480 [label="gini = 0.0\nsamples = 1\nvalue = [0, 0, 1, 0, 0, 0, 0]"] ;
1478 -> 1480 ;
1481 [label="gini = 0.0\nsamples = 1\nvalue = [0, 0, 1, 0, 0, 0, 0]"] ;
1461 -> 1481 ;
1482 [label="residual sugar <= 1.5\ngini = 0.3806\nsamples = 17\nvalue = [0, 1, 0, 3, 13, 0, 0]"] ;
1420 -> 1482 ;
1483 [label="gini = 0.0\nsamples = 2\nvalue = [0, 0, 0, 2, 0, 0, 0]"] ;
1482 -> 1483 ;
1484 [label="alcohol <= 10.8833\ngini = 0.24\nsamples = 15\nvalue = [0, 1, 0, 1, 13, 0, 0]"] ;
1482 -> 1484 ;
1485 [label="pH <= 3.35\ngini = 0.5\nsamples = 2\nvalue = [0, 1, 0, 1, 0, 0, 0]"] ;
1484 -> 1485 ;
1486 [label="gini = 0.0\nsamples = 1\nvalue = [0, 1, 0, 0, 0, 0, 0]"] ;
1485 -> 1486 ;
1487 [label="gini = 0.0\nsamples = 1\nvalue = [0, 0, 0, 1, 0, 0, 0]"] ;
1485 -> 1487 ;
1488 [label="gini = 0.0\nsamples = 13\nvalue = [0, 0, 0, 0, 13, 0, 0]"] ;
1484 -> 1488 ;
1489 [label="citric acid <= 0.36\ngini = 0.625\nsamples = 16\nvalue = [1, 0, 2, 1, 9, 3, 0]"] ;
1295 -> 1489 ;
1490 [label="alcohol <= 11.2\ngini = 0.7654\nsamples = 9\nvalue = [1, 0, 2, 1, 2, 3, 0]"] ;
1489 -> 1490 ;
1491 [label="sulphates <= 0.595\ngini = 0.7222\nsamples = 6\nvalue = [1, 0, 2, 1, 2, 0, 0]"] ;
1490 -> 1491 ;
1492 [label="chlorides <= 0.0455\ngini = 0.625\nsamples = 4\nvalue = [1, 0, 2, 1, 0, 0, 0]"] ;
1491 -> 1492 ;
1493 [label="gini = 0.0\nsamples = 2\nvalue = [0, 0, 2, 0, 0, 0, 0]"] ;
1492 -> 1493 ;
1494 [label="residual sugar <= 2.25\ngini = 0.5\nsamples = 2\nvalue = [1, 0, 0, 1, 0, 0, 0]"] ;
1492 -> 1494 ;
1495 [label="gini = 0.0\nsamples = 1\nvalue = [1, 0, 0, 0, 0, 0, 0]"] ;
1494 -> 1495 ;
1496 [label="gini = 0.0\nsamples = 1\nvalue = [0, 0, 0, 1, 0, 0, 0]"] ;
1494 -> 1496 ;
1497 [label="gini = 0.0\nsamples = 2\nvalue = [0, 0, 0, 0, 2, 0, 0]"] ;
1491 -> 1497 ;
1498 [label="gini = 0.0\nsamples = 3\nvalue = [0, 0, 0, 0, 0, 3, 0]"] ;
1490 -> 1498 ;
1499 [label="gini = 0.0\nsamples = 7\nvalue = [0, 0, 0, 0, 7, 0, 0]"] ;
1489 -> 1499 ;
1500 [label="fixed acidity <= 5.65\ngini = 0.6433\nsamples = 117\nvalue = [0, 1, 4, 30, 59, 22, 1]"] ;
856 -> 1500 ;
1501 [label="density <= 0.9889\ngini = 0.6077\nsamples = 21\nvalue = [0, 0, 0, 4, 6, 11, 0]"] ;
1500 -> 1501 ;
1502 [label="volatile acidity <= 0.4575\ngini = 0.62\nsamples = 10\nvalue = [0, 0, 0, 3, 5, 2, 0]"] ;
1501 -> 1502 ;
1503 [label="chlorides <= 0.019\ngini = 0.449\nsamples = 7\nvalue = [0, 0, 0, 1, 5, 1, 0]"] ;
1502 -> 1503 ;
1504 [label="gini = 0.0\nsamples = 1\nvalue = [0, 0, 0, 0, 0, 1, 0]"] ;
1503 -> 1504 ;
1505 [label="density <= 0.9889\ngini = 0.2778\nsamples = 6\nvalue = [0, 0, 0, 1, 5, 0, 0]"] ;
1503 -> 1505 ;
1506 [label="gini = 0.0\nsamples = 5\nvalue = [0, 0, 0, 0, 5, 0, 0]"] ;
1505 -> 1506 ;
1507 [label="gini = 0.0\nsamples = 1\nvalue = [0, 0, 0, 1, 0, 0, 0]"] ;
1505 -> 1507 ;
1508 [label="free sulfur dioxide <= 32.5\ngini = 0.4444\nsamples = 3\nvalue = [0, 0, 0, 2, 0, 1, 0]"] ;
1502 -> 1508 ;
1509 [label="gini = 0.0\nsamples = 2\nvalue = [0, 0, 0, 2, 0, 0, 0]"] ;
1508 -> 1509 ;
1510 [label="gini = 0.0\nsamples = 1\nvalue = [0, 0, 0, 0, 0, 1, 0]"] ;
1508 -> 1510 ;
1511 [label="density <= 0.9898\ngini = 0.314\nsamples = 11\nvalue = [0, 0, 0, 1, 1, 9, 0]"] ;
1501 -> 1511 ;
1512 [label="gini = 0.0\nsamples = 9\nvalue = [0, 0, 0, 0, 0, 9, 0]"] ;
1511 -> 1512 ;
1513 [label="density <= 0.9903\ngini = 0.5\nsamples = 2\nvalue = [0, 0, 0, 1, 1, 0, 0]"] ;
1511 -> 1513 ;
1514 [label="gini = 0.0\nsamples = 1\nvalue = [0, 0, 0, 1, 0, 0, 0]"] ;
1513 -> 1514 ;
1515 [label="gini = 0.0\nsamples = 1\nvalue = [0, 0, 0, 0, 1, 0, 0]"] ;
1513 -> 1515 ;
1516 [label="free sulfur dioxide <= 28.5\ngini = 0.6068\nsamples = 96\nvalue = [0, 1, 4, 26, 53, 11, 1]"] ;
1500 -> 1516 ;
1517 [label="pH <= 3.195\ngini = 0.6353\nsamples = 44\nvalue = [0, 1, 4, 19, 18, 2, 0]"] ;
1516 -> 1517 ;
1518 [label="chlorides <= 0.028\ngini = 0.6095\nsamples = 26\nvalue = [0, 1, 3, 15, 5, 2, 0]"] ;
1517 -> 1518 ;
1519 [label="pH <= 3.01\ngini = 0.6562\nsamples = 8\nvalue = [0, 0, 1, 2, 4, 1, 0]"] ;
1518 -> 1519 ;
1520 [label="total sulfur dioxide <= 102.0\ngini = 0.4444\nsamples = 3\nvalue = [0, 0, 0, 2, 0, 1, 0]"] ;
1519 -> 1520 ;
1521 [label="gini = 0.0\nsamples = 2\nvalue = [0, 0, 0, 2, 0, 0, 0]"] ;
1520 -> 1521 ;
1522 [label="gini = 0.0\nsamples = 1\nvalue = [0, 0, 0, 0, 0, 1, 0]"] ;
1520 -> 1522 ;
1523 [label="sulphates <= 0.445\ngini = 0.32\nsamples = 5\nvalue = [0, 0, 1, 0, 4, 0, 0]"] ;
1519 -> 1523 ;
1524 [label="gini = 0.0\nsamples = 1\nvalue = [0, 0, 1, 0, 0, 0, 0]"] ;
1523 -> 1524 ;
1525 [label="gini = 0.0\nsamples = 4\nvalue = [0, 0, 0, 0, 4, 0, 0]"] ;
1523 -> 1525 ;
1526 [label="residual sugar <= 2.7\ngini = 0.4568\nsamples = 18\nvalue = [0, 1, 2, 13, 1, 1, 0]"] ;
1518 -> 1526 ;
1527 [label="chlorides <= 0.062\ngini = 0.716\nsamples = 9\nvalue = [0, 1, 2, 4, 1, 1, 0]"] ;
1526 -> 1527 ;
1528 [label="total sulfur dioxide <= 91.5\ngini = 0.6122\nsamples = 7\nvalue = [0, 1, 0, 4, 1, 1, 0]"] ;
1527 -> 1528 ;
1529 [label="density <= 0.9888\ngini = 0.6667\nsamples = 3\nvalue = [0, 1, 0, 0, 1, 1, 0]"] ;
1528 -> 1529 ;
1530 [label="gini = 0.0\nsamples = 1\nvalue = [0, 0, 0, 0, 1, 0, 0]"] ;
1529 -> 1530 ;
1531 [label="density <= 0.989\ngini = 0.5\nsamples = 2\nvalue = [0, 1, 0, 0, 0, 1, 0]"] ;
1529 -> 1531 ;
1532 [label="gini = 0.0\nsamples = 1\nvalue = [0, 0, 0, 0, 0, 1, 0]"] ;
1531 -> 1532 ;
1533 [label="gini = 0.0\nsamples = 1\nvalue = [0, 1, 0, 0, 0, 0, 0]"] ;
1531 -> 1533 ;
1534 [label="gini = 0.0\nsamples = 4\nvalue = [0, 0, 0, 4, 0, 0, 0]"] ;
1528 -> 1534 ;
1535 [label="gini = 0.0\nsamples = 2\nvalue = [0, 0, 2, 0, 0, 0, 0]"] ;
1527 -> 1535 ;
1536 [label="gini = 0.0\nsamples = 9\nvalue = [0, 0, 0, 9, 0, 0, 0]"] ;
1526 -> 1536 ;
1537 [label="volatile acidity <= 0.375\ngini = 0.4259\nsamples = 18\nvalue = [0, 0, 1, 4, 13, 0, 0]"] ;
1517 -> 1537 ;
1538 [label="residual sugar <= 1.725\ngini = 0.18\nsamples = 10\nvalue = [0, 0, 1, 0, 9, 0, 0]"] ;
1537 -> 1538 ;
1539 [label="chlorides <= 0.031\ngini = 0.5\nsamples = 2\nvalue = [0, 0, 1, 0, 1, 0, 0]"] ;
1538 -> 1539 ;
1540 [label="gini = 0.0\nsamples = 1\nvalue = [0, 0, 1, 0, 0, 0, 0]"] ;
1539 -> 1540 ;
1541 [label="gini = 0.0\nsamples = 1\nvalue = [0, 0, 0, 0, 1, 0, 0]"] ;
1539 -> 1541 ;
1542 [label="gini = 0.0\nsamples = 8\nvalue = [0, 0, 0, 0, 8, 0, 0]"] ;
1538 -> 1542 ;
1543 [label="density <= 0.9902\ngini = 0.5\nsamples = 8\nvalue = [0, 0, 0, 4, 4, 0, 0]"] ;
1537 -> 1543 ;
1544 [label="gini = 0.0\nsamples = 3\nvalue = [0, 0, 0, 3, 0, 0, 0]"] ;
1543 -> 1544 ;
1545 [label="chlorides <= 0.0305\ngini = 0.32\nsamples = 5\nvalue = [0, 0, 0, 1, 4, 0, 0]"] ;
1543 -> 1545 ;
1546 [label="gini = 0.0\nsamples = 1\nvalue = [0, 0, 0, 1, 0, 0, 0]"] ;
1545 -> 1546 ;
1547 [label="gini = 0.0\nsamples = 4\nvalue = [0, 0, 0, 0, 4, 0, 0]"] ;
1545 -> 1547 ;
1548 [label="chlorides <= 0.0385\ngini = 0.4985\nsamples = 52\nvalue = [0, 0, 0, 7, 35, 9, 1]"] ;
1516 -> 1548 ;
1549 [label="citric acid <= 0.435\ngini = 0.3883\nsamples = 43\nvalue = [0, 0, 0, 4, 33, 5, 1]"] ;
1548 -> 1549 ;
1550 [label="density <= 0.9924\ngini = 0.2425\nsamples = 37\nvalue = [0, 0, 0, 2, 32, 3, 0]"] ;
1549 -> 1550 ;
1551 [label="free sulfur dioxide <= 51.5\ngini = 0.2037\nsamples = 36\nvalue = [0, 0, 0, 2, 32, 2, 0]"] ;
1550 -> 1551 ;
1552 [label="citric acid <= 0.255\ngini = 0.16\nsamples = 35\nvalue = [0, 0, 0, 2, 32, 1, 0]"] ;
1551 -> 1552 ;
1553 [label="residual sugar <= 3.45\ngini = 0.48\nsamples = 5\nvalue = [0, 0, 0, 2, 3, 0, 0]"] ;
1552 -> 1553 ;
1554 [label="gini = 0.0\nsamples = 2\nvalue = [0, 0, 0, 2, 0, 0, 0]"] ;
1553 -> 1554 ;
1555 [label="gini = 0.0\nsamples = 3\nvalue = [0, 0, 0, 0, 3, 0, 0]"] ;
1553 -> 1555 ;
1556 [label="fixed acidity <= 5.85\ngini = 0.0644\nsamples = 30\nvalue = [0, 0, 0, 0, 29, 1, 0]"] ;
1552 -> 1556 ;
1557 [label="sulphates <= 0.48\ngini = 0.5\nsamples = 2\nvalue = [0, 0, 0, 0, 1, 1, 0]"] ;
1556 -> 1557 ;
1558 [label="gini = 0.0\nsamples = 1\nvalue = [0, 0, 0, 0, 1, 0, 0]"] ;
1557 -> 1558 ;
1559 [label="gini = 0.0\nsamples = 1\nvalue = [0, 0, 0, 0, 0, 1, 0]"] ;
1557 -> 1559 ;
1560 [label="gini = 0.0\nsamples = 28\nvalue = [0, 0, 0, 0, 28, 0, 0]"] ;
1556 -> 1560 ;
1561 [label="gini = 0.0\nsamples = 1\nvalue = [0, 0, 0, 0, 0, 1, 0]"] ;
1551 -> 1561 ;
1562 [label="gini = 0.0\nsamples = 1\nvalue = [0, 0, 0, 0, 0, 1, 0]"] ;
1550 -> 1562 ;
1563 [label="volatile acidity <= 0.255\ngini = 0.7222\nsamples = 6\nvalue = [0, 0, 0, 2, 1, 2, 1]"] ;
1549 -> 1563 ;
1564 [label="gini = 0.0\nsamples = 2\nvalue = [0, 0, 0, 2, 0, 0, 0]"] ;
1563 -> 1564 ;
1565 [label="volatile acidity <= 0.385\ngini = 0.625\nsamples = 4\nvalue = [0, 0, 0, 0, 1, 2, 1]"] ;
1563 -> 1565 ;
1566 [label="sulphates <= 0.425\ngini = 0.5\nsamples = 2\nvalue = [0, 0, 0, 0, 1, 0, 1]"] ;
1565 -> 1566 ;
1567 [label="gini = 0.0\nsamples = 1\nvalue = [0, 0, 0, 0, 0, 0, 1]"] ;
1566 -> 1567 ;
1568 [label="gini = 0.0\nsamples = 1\nvalue = [0, 0, 0, 0, 1, 0, 0]"] ;
1566 -> 1568 ;
1569 [label="gini = 0.0\nsamples = 2\nvalue = [0, 0, 0, 0, 0, 2, 0]"] ;
1565 -> 1569 ;
1570 [label="fixed acidity <= 6.05\ngini = 0.642\nsamples = 9\nvalue = [0, 0, 0, 3, 2, 4, 0]"] ;
1548 -> 1570 ;
1571 [label="gini = 0.0\nsamples = 2\nvalue = [0, 0, 0, 0, 2, 0, 0]"] ;
1570 -> 1571 ;
1572 [label="density <= 0.9898\ngini = 0.4898\nsamples = 7\nvalue = [0, 0, 0, 3, 0, 4, 0]"] ;
1570 -> 1572 ;
1573 [label="residual sugar <= 1.4\ngini = 0.375\nsamples = 4\nvalue = [0, 0, 0, 3, 0, 1, 0]"] ;
1572 -> 1573 ;
1574 [label="gini = 0.0\nsamples = 1\nvalue = [0, 0, 0, 0, 0, 1, 0]"] ;
1573 -> 1574 ;
1575 [label="gini = 0.0\nsamples = 3\nvalue = [0, 0, 0, 3, 0, 0, 0]"] ;
1573 -> 1575 ;
1576 [label="gini = 0.0\nsamples = 3\nvalue = [0, 0, 0, 0, 0, 3, 0]"] ;
1572 -> 1576 ;
}